<?xml version="1.0"?>
<opencv_storage>
<my_svm type_id="opencv-ml-svm">
  <svm_type>C_SVC</svm_type>
  <kernel><type>RBF</type>
    <gamma>6.5536000000000001e+001</gamma></kernel>
  <C>1.6384000000000000e+001</C>
  <term_criteria><epsilon>1.0000000474974513e-003</epsilon>
    <iterations>7500</iterations></term_criteria>
  <var_all>36</var_all>
  <var_count>36</var_count>
  <class_count>2</class_count>
  <class_labels type_id="opencv-matrix">
    <rows>1</rows>
    <cols>2</cols>
    <dt>i</dt>
    <data>
      -1 1</data></class_labels>
  <sv_total>220</sv_total>
  <support_vectors>
    <_>
      5.80579154e-002 5.52411303e-002 5.06803803e-002 4.16399799e-002
      3.62173989e-002 3.09845004e-002 3.00526991e-002 3.14111635e-002
      2.96221059e-002 2.85061896e-002 2.62264889e-002 2.20425036e-002
      1.71141084e-002 1.42346518e-002 1.24386773e-002 1.20046763e-002
      1.75508074e-002 1.81645155e-002 1.74275544e-002 1.69901252e-002
      1.53950155e-002 9.16275382e-003 9.32837650e-003 1.17725218e-002
      1.87718570e-002 2.94555873e-002 4.07590419e-002 4.65667881e-002
      4.80367579e-002 4.51985076e-002 3.81091684e-002 2.90217809e-002
      2.40544658e-002 2.40051094e-002 2.21050009e-002 2.16496848e-002</_>
    <_>
      5.12167290e-002 5.29705286e-002 5.42787872e-002 5.67099154e-002
      5.88612817e-002 5.61817437e-002 4.66044955e-002 3.85415964e-002
      2.58140173e-002 1.30721359e-002 6.04059920e-003 4.15298250e-003
      2.74357968e-004 1.69019899e-004 8.96743586e-005 8.96743586e-005
      1.73247652e-004 1.21104800e-004 1.06892432e-004 9.13464319e-005
      9.13464319e-005 7.03445694e-005 1.42929566e-004 2.33313782e-004
      5.80039225e-004 7.97200948e-003 1.86517574e-002 3.85734029e-002
      4.72254306e-002 5.43731898e-002 6.37442544e-002 6.51287958e-002
      5.75319603e-002 5.83170988e-002 6.32200167e-002 5.85838407e-002</_>
    <_>
      5.21392114e-002 5.05363345e-002 4.24012840e-002 2.99406685e-002
      2.15419121e-002 1.96559634e-002 2.07626205e-002 2.42427979e-002
      2.80405860e-002 2.98156124e-002 2.95943394e-002 2.67590899e-002
      2.16171518e-002 1.63003802e-002 1.16011808e-002 8.46822560e-003
      6.87545165e-003 4.81860526e-003 3.23162903e-003 2.66567408e-003
      2.67259544e-003 2.88140005e-003 3.59171419e-003 4.66154329e-003
      9.90872364e-003 2.48013604e-002 4.28116806e-002 6.05847836e-002
      7.05022886e-002 7.13310465e-002 6.21530116e-002 4.92669344e-002
      3.61487009e-002 3.63663845e-002 3.56908441e-002 3.56183089e-002</_>
    <_>
      2.72020344e-002 2.62706839e-002 2.47186366e-002 1.93743482e-002
      1.73245519e-002 1.77279375e-002 2.26947181e-002 3.13412324e-002
      3.61683406e-002 3.71237583e-002 3.63233350e-002 3.20020020e-002
      2.24619284e-002 1.69873089e-002 1.35686826e-002 1.05485860e-002
      7.57703232e-003 5.13119856e-003 3.27670621e-003 2.99179670e-003
      3.04049859e-003 3.35993478e-003 4.12416877e-003 6.08147122e-003
      1.54481521e-002 5.62911741e-002 7.73952380e-002 8.93963501e-002
      9.47346017e-002 8.93469006e-002 5.12459800e-002 3.17080878e-002
      2.10803319e-002 1.68492161e-002 1.49143031e-002 1.41687859e-002</_>
    <_>
      4.89785559e-002 4.70879711e-002 4.14435789e-002 3.17235887e-002
      2.54087336e-002 2.15513706e-002 2.08690111e-002 2.36846581e-002
      2.59743892e-002 2.85943840e-002 3.21395658e-002 3.10358647e-002
      2.65936852e-002 2.12309193e-002 1.55118862e-002 8.42683855e-003
      4.97290166e-003 2.34289397e-003 1.71374122e-003 1.23381265e-003
      1.14964694e-003 1.01396616e-003 1.34583807e-003 2.00079242e-003
      5.19015547e-003 2.28412785e-002 4.61980402e-002 6.13321178e-002
      7.70642608e-002 8.20061639e-002 6.95830658e-002 4.94890474e-002
      3.90079692e-002 2.97721252e-002 2.66186222e-002 2.48684827e-002</_>
    <_>
      2.56569944e-002 2.45571230e-002 2.07566358e-002 1.67244133e-002
      1.43113518e-002 1.54323392e-002 2.03802474e-002 3.03049255e-002
      4.56079282e-002 5.39656617e-002 5.52545600e-002 4.92859967e-002
      3.81088816e-002 2.03234460e-002 8.68060905e-003 3.06329504e-003
      2.23288243e-003 1.54839340e-003 1.39524997e-003 1.32079888e-003
      1.30379398e-003 1.35783816e-003 1.74207659e-003 3.05593642e-003
      9.22741368e-003 2.85230093e-002 5.89545965e-002 7.73404464e-002
      8.79783407e-002 8.67964998e-002 7.15389177e-002 4.33203764e-002
      2.72238608e-002 1.95947904e-002 1.73139237e-002 1.58164930e-002</_>
    <_>
      3.62901539e-002 3.35963704e-002 2.98234001e-002 1.97923779e-002
      1.55311711e-002 1.22899804e-002 1.23966429e-002 1.50178932e-002
      2.06720158e-002 3.32133397e-002 4.25563492e-002 4.28431444e-002
      3.96207199e-002 3.25566530e-002 1.86463557e-002 7.19159376e-003
      4.34039393e-003 2.66355649e-003 2.17775442e-003 1.71211758e-003
      1.64179050e-003 1.54780585e-003 1.67773140e-003 2.48120469e-003
      4.28596325e-003 2.10226681e-002 6.21807761e-002 8.32060426e-002
      9.16259140e-002 9.42261815e-002 8.10474381e-002 4.22222912e-002
      2.51463838e-002 2.21216325e-002 2.18407251e-002 2.07934771e-002</_>
    <_>
      5.21392114e-002 5.05363345e-002 4.24012840e-002 2.99406685e-002
      2.15419121e-002 1.96559634e-002 2.07626205e-002 2.42427979e-002
      2.80405860e-002 2.98156124e-002 2.95943394e-002 2.67590899e-002
      2.16171518e-002 1.63003802e-002 1.16011808e-002 8.46822560e-003
      6.87545165e-003 4.81860526e-003 3.23162903e-003 2.66567408e-003
      2.67259544e-003 2.88140005e-003 3.59171419e-003 4.66154329e-003
      9.90872364e-003 2.48013604e-002 4.28116806e-002 6.05847836e-002
      7.05022886e-002 7.13310465e-002 6.21530116e-002 4.92669344e-002
      3.61487009e-002 3.63663845e-002 3.56908441e-002 3.56183089e-002</_>
    <_>
      3.66796255e-002 3.60072665e-002 3.14423554e-002 2.30672210e-002
      1.91422179e-002 1.85080729e-002 1.86740980e-002 2.32902840e-002
      2.85226386e-002 3.30188796e-002 3.54356132e-002 3.39881331e-002
      2.94217374e-002 2.22415719e-002 1.56884175e-002 9.43918806e-003
      7.36014452e-003 5.13221417e-003 3.89222545e-003 3.08396737e-003
      3.16226110e-003 3.51094571e-003 4.78215609e-003 6.62488118e-003
      1.18067460e-002 2.90241148e-002 4.94482629e-002 6.27780706e-002
      7.15501606e-002 7.22836256e-002 6.07922971e-002 4.45784479e-002
      3.73433717e-002 3.53649855e-002 3.68627161e-002 3.60511392e-002</_>
    <_>
      3.06947958e-002 2.98871957e-002 2.63207890e-002 1.78279709e-002
      1.43431071e-002 1.38435028e-002 1.64676458e-002 2.54072230e-002
      4.22460474e-002 4.81881425e-002 4.77049351e-002 4.27919887e-002
      3.23679261e-002 1.37015413e-002 5.71626797e-003 2.97642522e-003
      2.39047967e-003 1.70929055e-003 1.53112132e-003 1.35860208e-003
      1.25650805e-003 1.31236704e-003 2.10789661e-003 3.64215788e-003
      1.00096697e-002 4.44090553e-002 7.61984512e-002 8.46739337e-002
      8.86043236e-002 8.62682387e-002 5.67892417e-002 2.86174715e-002
      2.35002059e-002 2.53527891e-002 2.54435930e-002 2.43390929e-002</_>
    <_>
      2.42927950e-002 2.48556621e-002 2.19643842e-002 1.70194246e-002
      1.50287310e-002 1.74592696e-002 2.25251764e-002 2.90750321e-002
      3.52670439e-002 3.79778482e-002 3.78221832e-002 3.16292644e-002
      2.41514537e-002 1.54212192e-002 9.61538777e-003 5.44582866e-003
      4.56839707e-003 3.41211027e-003 3.04030022e-003 3.04659014e-003
      2.91026570e-003 3.08917579e-003 3.79204401e-003 8.05215444e-003
      1.97590683e-002 4.13376428e-002 6.78927749e-002 8.31513628e-002
      8.88673291e-002 8.33256915e-002 6.77159652e-002 4.34796996e-002
      3.10148653e-002 2.66683027e-002 2.41035558e-002 2.12219246e-002</_>
    <_>
      4.22758460e-002 4.08836566e-002 3.42045724e-002 2.36710627e-002
      1.77412424e-002 1.82461645e-002 2.40291804e-002 3.21487188e-002
      4.02688235e-002 4.17864621e-002 3.95040400e-002 3.23485658e-002
      2.26822197e-002 1.14406990e-002 6.59459364e-003 4.02584113e-003
      3.17300321e-003 2.10998161e-003 1.85167789e-003 2.06366670e-003
      2.15302291e-003 1.89509778e-003 3.45991901e-003 8.91064666e-003
      2.50536278e-002 4.63176668e-002 6.37686104e-002 7.14506209e-002
      7.25971013e-002 6.07308112e-002 4.53176796e-002 3.27154882e-002
      2.91100405e-002 3.12820673e-002 3.24041359e-002 3.17834765e-002</_>
    <_>
      5.37627302e-002 5.10388054e-002 4.32163626e-002 2.74765491e-002
      1.92661379e-002 1.67941879e-002 1.79214887e-002 2.26106308e-002
      2.60359179e-002 2.80302875e-002 2.81285830e-002 2.65460666e-002
      2.25551985e-002 1.99810434e-002 1.84669122e-002 1.62046775e-002
      1.52464770e-002 1.23567358e-002 9.21937451e-003 7.69784814e-003
      7.42268842e-003 8.62451829e-003 1.04583250e-002 1.38947004e-002
      2.10518017e-002 3.97594459e-002 4.89646979e-002 5.57488315e-002
      5.81151545e-002 5.46452962e-002 4.09911498e-002 3.26537639e-002
      2.91470513e-002 3.22843790e-002 3.29461507e-002 3.07360534e-002</_>
    <_>
      1.72159038e-002 1.75513551e-002 1.72180627e-002 1.49352560e-002
      1.47169288e-002 1.53458323e-002 1.71720423e-002 2.27552410e-002
      3.24954018e-002 4.95987944e-002 5.86717092e-002 5.55053763e-002
      4.78000641e-002 3.56127657e-002 1.57739464e-002 3.45514808e-003
      1.85031316e-003 1.26666157e-003 1.06016791e-003 9.23893240e-004
      7.51466083e-004 8.29443918e-004 1.01315358e-003 1.65985839e-003
      4.01992211e-003 2.13043056e-002 6.59894720e-002 8.93571675e-002
      9.66744348e-002 9.79001001e-002 8.32597762e-002 4.01591659e-002
      1.83922034e-002 1.40222898e-002 1.22719761e-002 1.14703523e-002</_>
    <_>
      4.83331867e-002 4.55072224e-002 3.56715880e-002 2.79406738e-002
      1.74592324e-002 1.48566458e-002 1.57022830e-002 1.90948565e-002
      2.25546490e-002 2.63052285e-002 2.86439732e-002 3.00942045e-002
      2.66095642e-002 2.25943103e-002 1.96611769e-002 1.52577106e-002
      1.07582882e-002 8.69437121e-003 7.12947408e-003 4.61473456e-003
      4.18466143e-003 4.62662429e-003 4.54066368e-003 5.27594844e-003
      9.13733523e-003 3.43745053e-002 5.06444871e-002 6.71660081e-002
      7.56361336e-002 7.84445480e-002 5.82625009e-002 4.57961261e-002
      3.26979198e-002 2.95871161e-002 2.64417827e-002 2.57000849e-002</_>
    <_>
      5.44019975e-002 5.16133383e-002 4.22535539e-002 3.22044306e-002
      2.32692417e-002 2.11918931e-002 2.22049020e-002 2.48423815e-002
      2.58500408e-002 2.54986584e-002 2.39543244e-002 2.07795389e-002
      1.75014473e-002 1.40503347e-002 1.12993727e-002 9.35470127e-003
      8.56883451e-003 6.08258042e-003 4.84743854e-003 4.31628339e-003
      3.51948291e-003 3.63910478e-003 4.12800303e-003 5.60792116e-003
      1.10247908e-002 3.32201011e-002 5.54808304e-002 6.61769882e-002
      7.15445280e-002 7.01871514e-002 5.45339473e-002 3.91934067e-002
      3.38957645e-002 3.29394042e-002 3.48493643e-002 3.59739289e-002</_>
    <_>
      1.02023855e-002 1.03555191e-002 1.11240903e-002 1.06686223e-002
      1.18714711e-002 1.58737581e-002 2.72698440e-002 4.40249182e-002
      5.53850532e-002 6.05266467e-002 6.51542172e-002 5.67156523e-002
      3.97193171e-002 2.71546915e-002 1.98867265e-002 9.45328921e-003
      4.67309402e-003 2.84079788e-003 2.34263553e-003 2.12399522e-003
      2.36398540e-003 2.93641607e-003 4.62937495e-003 8.06466863e-003
      1.82401910e-002 4.11368199e-002 6.26607090e-002 7.71754906e-002
      8.15116167e-002 7.38986135e-002 5.32548092e-002 3.30772065e-002
      1.84611995e-002 1.26431175e-002 1.15094967e-002 1.10694468e-002</_>
    <_>
      3.32558416e-002 3.33478563e-002 3.11631728e-002 2.67389696e-002
      2.44246628e-002 2.36845315e-002 2.32142266e-002 2.50571612e-002
      2.53875256e-002 2.70803552e-002 2.76213996e-002 2.64110509e-002
      2.34787595e-002 2.10032687e-002 1.75378751e-002 1.34782502e-002
      1.03268735e-002 7.95626268e-003 6.77793939e-003 4.91217012e-003
      3.83485435e-003 3.85636860e-003 4.31085285e-003 5.75756468e-003
      1.18662389e-002 2.82566566e-002 4.20930013e-002 5.77074736e-002
      6.80706128e-002 7.07611889e-002 6.15344010e-002 5.37206531e-002
      4.35892045e-002 3.91379371e-002 3.65841873e-002 3.60606834e-002</_>
    <_>
      3.58622745e-002 3.46741043e-002 3.19133401e-002 2.38253009e-002
      2.25854833e-002 2.42018960e-002 2.83428244e-002 3.23974267e-002
      3.23784947e-002 3.01879253e-002 2.73532607e-002 2.21125837e-002
      1.73659045e-002 1.37818456e-002 1.17063420e-002 8.74469709e-003
      6.97892625e-003 4.68026428e-003 3.94377112e-003 3.59364366e-003
      3.47878318e-003 3.91263468e-003 5.66481194e-003 9.29081626e-003
      1.93332750e-002 4.39048819e-002 6.56613633e-002 7.47765899e-002
      7.98325688e-002 7.55288601e-002 5.59857413e-002 3.74723412e-002
      3.10808495e-002 2.69578211e-002 2.57994961e-002 2.46890187e-002</_>
    <_>
      3.98549139e-002 3.82403657e-002 3.24332491e-002 2.23065764e-002
      1.66848991e-002 1.46623338e-002 1.61534436e-002 2.29011104e-002
      3.44276913e-002 4.00427543e-002 3.95586155e-002 3.55657190e-002
      2.73556802e-002 1.38491010e-002 5.84427221e-003 3.38261691e-003
      3.09129176e-003 2.18213373e-003 1.93527516e-003 1.83018844e-003
      1.77445763e-003 1.64108444e-003 2.06363504e-003 2.90055480e-003
      7.37163657e-003 3.89451534e-002 7.47246668e-002 8.55910107e-002
      9.13455412e-002 8.97060856e-002 6.23755753e-002 2.96873208e-002
      2.25764010e-002 2.50317063e-002 2.63159294e-002 2.56472491e-002</_>
    <_>
      3.11456081e-002 2.97945086e-002 2.52785068e-002 1.87451318e-002
      1.50847249e-002 1.37971481e-002 1.54631939e-002 2.24482100e-002
      3.22733447e-002 4.82057370e-002 5.36673144e-002 5.16005792e-002
      4.35578004e-002 3.08021531e-002 1.24630304e-002 4.01434675e-003
      1.74717908e-003 1.18798588e-003 1.07798737e-003 9.79357399e-004
      9.30991722e-004 8.37304397e-004 8.71156284e-004 1.04570307e-003
      2.15283968e-003 1.14699909e-002 3.99890617e-002 6.02288805e-002
      7.72096142e-002 8.88611823e-002 8.58830288e-002 6.08092323e-002
      4.38691005e-002 3.13253701e-002 2.19330136e-002 1.92497075e-002</_>
    <_>
      3.34736779e-002 3.23668383e-002 2.82778814e-002 2.28350535e-002
      2.07551438e-002 2.24656556e-002 2.52754036e-002 3.05881575e-002
      3.34132239e-002 3.37489918e-002 3.25363912e-002 3.11177559e-002
      2.76550725e-002 2.52829362e-002 2.19719429e-002 1.78240351e-002
      1.38097648e-002 9.33863036e-003 5.50010847e-003 3.59546440e-003
      3.25542199e-003 5.94726019e-003 9.74470563e-003 1.70129165e-002
      2.62458026e-002 4.23352979e-002 5.23647405e-002 6.13858290e-002
      6.17804788e-002 5.75020537e-002 4.62307669e-002 3.78293656e-002
      2.83857901e-002 2.70150732e-002 2.56853253e-002 2.54470278e-002</_>
    <_>
      2.90507656e-002 2.84158587e-002 2.88715754e-002 3.23414057e-002
      3.64485607e-002 4.05312888e-002 4.64206524e-002 5.15705161e-002
      4.89158407e-002 4.17211987e-002 3.24070677e-002 2.15884931e-002
      1.15004787e-002 6.97243633e-003 5.96287241e-003 5.71043603e-003
      6.47446513e-003 6.88469317e-003 8.21861625e-003 9.33373440e-003
      1.12387473e-002 1.35841239e-002 1.76135339e-002 2.64868177e-002
      4.13514338e-002 5.70366383e-002 6.59122616e-002 6.60973340e-002
      5.93130924e-002 4.42812070e-002 2.81470194e-002 1.71987340e-002
      1.40075805e-002 1.28964698e-002 1.29967891e-002 1.24972239e-002</_>
    <_>
      2.23287530e-002 2.19770297e-002 1.90227088e-002 1.55122494e-002
      1.36778029e-002 1.53651759e-002 1.96576510e-002 2.91215181e-002
      3.51409167e-002 3.83339711e-002 4.06402461e-002 4.07967456e-002
      3.51582579e-002 2.75439322e-002 2.19743792e-002 1.57635100e-002
      9.71510448e-003 4.28002840e-003 3.29851266e-003 3.08787148e-003
      2.95551470e-003 3.01068020e-003 3.34052299e-003 4.57074121e-003
      9.07463767e-003 3.33315730e-002 6.00198731e-002 8.17821547e-002
      9.15713012e-002 9.05075893e-002 6.97639287e-002 4.46751118e-002
      2.46214103e-002 1.76423844e-002 1.60981864e-002 1.46379918e-002</_>
    <_>
      3.75886895e-002 3.57245170e-002 3.05734053e-002 2.58244574e-002
      2.17566099e-002 2.20228694e-002 2.59348638e-002 3.08414791e-002
      3.39296311e-002 3.55871655e-002 3.42484117e-002 3.14983986e-002
      2.78424062e-002 2.44579725e-002 2.13340875e-002 1.80384256e-002
      1.46248480e-002 1.03723155e-002 6.82783825e-003 4.18639788e-003
      3.75883305e-003 4.48923325e-003 7.82133359e-003 1.46634672e-002
      2.15361118e-002 4.06602249e-002 5.33097163e-002 6.33981749e-002
      6.39899224e-002 6.06281832e-002 4.55429032e-002 3.48526947e-002
      2.50761136e-002 2.24720575e-002 2.26277448e-002 2.19585504e-002</_>
    <_>
      2.16549132e-002 2.09945031e-002 1.85097661e-002 1.31305447e-002
      1.14271743e-002 1.17810117e-002 1.29249888e-002 1.71677452e-002
      2.19359118e-002 4.20158766e-002 5.65687865e-002 5.52203022e-002
      5.05320691e-002 4.47275005e-002 2.26519573e-002 5.35350759e-003
      4.19585779e-003 3.23796296e-003 2.85064103e-003 2.84396787e-003
      2.69010989e-003 2.42861081e-003 2.72354996e-003 3.02639464e-003
      4.14475426e-003 1.91606469e-002 6.29612729e-002 8.77599865e-002
      9.35973674e-002 9.52002779e-002 8.21160972e-002 4.07917537e-002
      1.76199153e-002 1.57373659e-002 1.47554167e-002 1.55614978e-002</_>
    <_>
      3.24853286e-002 3.25076804e-002 3.12430225e-002 2.90180482e-002
      2.83807218e-002 2.93026324e-002 3.19436789e-002 3.69675308e-002
      3.95987779e-002 4.06115316e-002 3.74347791e-002 3.04487981e-002
      2.18583476e-002 1.47155942e-002 8.78200401e-003 5.41159976e-003
      4.26980108e-003 3.89461452e-003 4.07592347e-003 5.19606983e-003
      6.43646112e-003 7.98693672e-003 8.75108782e-003 1.07740583e-002
      1.52115766e-002 4.12916802e-002 5.36969677e-002 6.41624704e-002
      6.94900975e-002 6.88123107e-002 4.49376255e-002 3.51292081e-002
      2.86002979e-002 2.51217615e-002 2.52943374e-002 2.61567328e-002</_>
    <_>
      3.26310210e-002 3.17550153e-002 2.59478111e-002 1.88544746e-002
      1.35805905e-002 1.22462353e-002 1.22394804e-002 1.70752779e-002
      2.33462509e-002 4.50349264e-002 5.50211705e-002 5.36599047e-002
      4.80120629e-002 3.98462340e-002 1.61902476e-002 3.57475551e-003
      2.04271032e-003 1.34048960e-003 9.74318536e-004 9.62905353e-004
      9.19662241e-004 9.09772469e-004 1.19218172e-003 1.56542764e-003
      2.93036457e-003 1.52672734e-002 4.85438630e-002 7.50536993e-002
      8.56286585e-002 8.95033926e-002 8.09404179e-002 5.09897768e-002
      2.81437039e-002 2.23425739e-002 2.09802222e-002 2.07531136e-002</_>
    <_>
      3.85305882e-002 3.80270407e-002 3.22757438e-002 2.62601748e-002
      2.13785134e-002 2.09569521e-002 2.15055812e-002 2.44820938e-002
      2.65996903e-002 2.85006277e-002 2.87985206e-002 2.66207121e-002
      2.31257062e-002 1.85600463e-002 1.48189440e-002 1.07276039e-002
      9.19985306e-003 8.59477092e-003 8.25120602e-003 8.27732403e-003
      9.98615008e-003 1.10811647e-002 1.21997502e-002 1.44499764e-002
      2.03079823e-002 3.03201955e-002 3.97328585e-002 4.74300645e-002
      5.44428825e-002 5.43750450e-002 5.14732935e-002 4.71223146e-002
      4.43983562e-002 4.30170968e-002 4.31396030e-002 4.10315432e-002</_>
    <_>
      3.72053385e-002 3.62474434e-002 3.01559232e-002 2.08796971e-002
      1.49298152e-002 1.46508412e-002 1.63472593e-002 1.87031664e-002
      2.06472967e-002 2.71752160e-002 3.29030044e-002 3.18995044e-002
      2.87489947e-002 2.55832411e-002 1.80163812e-002 1.04547003e-002
      8.50966573e-003 7.74766691e-003 7.23248022e-003 6.57808175e-003
      6.02437556e-003 5.48938429e-003 5.40039921e-003 5.98104345e-003
      6.81425631e-003 2.74889972e-002 4.91726920e-002 6.37291893e-002
      7.31925070e-002 7.97953680e-002 6.59058988e-002 5.09713069e-002
      4.07966003e-002 3.70110720e-002 3.38628925e-002 3.37482952e-002</_>
    <_>
      1.92997511e-002 1.89853273e-002 1.72250755e-002 1.27038537e-002
      1.08276494e-002 1.16527602e-002 1.41612748e-002 2.02531610e-002
      3.07456572e-002 4.12899218e-002 4.51572388e-002 4.32772040e-002
      3.70016843e-002 2.49804668e-002 1.28001999e-002 6.70957798e-003
      5.38424589e-003 3.73005401e-003 3.30818980e-003 3.42756393e-003
      3.09739308e-003 2.90311547e-003 3.29509261e-003 4.25878121e-003
      7.13143917e-003 2.85579115e-002 7.13679492e-002 8.99164453e-002
      9.72250178e-002 9.79680195e-002 8.13142359e-002 4.12903540e-002
      2.56091096e-002 2.19104514e-002 2.13487670e-002 1.98850501e-002</_>
    <_>
      1.83610376e-002 1.77140739e-002 1.58154294e-002 1.45434309e-002
      1.32765435e-002 1.58929005e-002 2.39429809e-002 4.41027060e-002
      5.92781566e-002 6.36851788e-002 6.23598062e-002 5.37765101e-002
      3.21174525e-002 1.52106332e-002 8.04650877e-003 4.17990191e-003
      3.03846016e-003 2.50810944e-003 2.23373319e-003 2.09426787e-003
      1.98754482e-003 2.34280201e-003 3.07749235e-003 5.88320801e-003
      1.72071159e-002 5.22490777e-002 7.96819329e-002 8.73834044e-002
      8.82056281e-002 7.95851946e-002 4.61991057e-002 1.97512619e-002
      1.24642747e-002 1.14657190e-002 1.01465294e-002 1.01916641e-002</_>
    <_>
      3.24953571e-002 3.11091151e-002 2.78546624e-002 2.29687952e-002
      1.98986810e-002 1.85519196e-002 2.06275154e-002 2.44868472e-002
      2.87206750e-002 3.11949123e-002 3.16327959e-002 3.06597594e-002
      2.67420262e-002 2.10795514e-002 1.58162396e-002 1.21240923e-002
      7.77168758e-003 4.80649108e-003 3.65040731e-003 3.14534199e-003
      2.85816146e-003 3.01809562e-003 4.70412662e-003 8.66014417e-003
      1.38153313e-002 3.24064195e-002 5.93493059e-002 7.37212151e-002
      8.28191414e-002 8.34158957e-002 7.00596496e-002 4.62157466e-002
      3.37911546e-002 2.52057947e-002 2.31734030e-002 2.14495882e-002</_>
    <_>
      3.69773135e-002 3.50107625e-002 3.27855386e-002 2.88574696e-002
      2.72974931e-002 2.45063342e-002 2.42173448e-002 2.88854744e-002
      3.05141620e-002 3.39247212e-002 3.63252647e-002 3.38170640e-002
      2.68814061e-002 2.12775115e-002 1.39742000e-002 7.05380971e-003
      5.14421239e-003 4.30758111e-003 3.62744695e-003 3.16979829e-003
      3.21164192e-003 2.95767165e-003 3.02837836e-003 5.23888459e-003
      1.46765653e-002 4.59050164e-002 6.71051443e-002 7.62068033e-002
      8.51677805e-002 7.91469142e-002 5.08169644e-002 3.11804973e-002
      2.42353547e-002 1.82591975e-002 1.76506080e-002 1.66576132e-002</_>
    <_>
      3.44398953e-002 3.22562605e-002 2.77848653e-002 1.71546508e-002
      1.25053879e-002 1.01115340e-002 1.04116034e-002 1.32668754e-002
      2.08911188e-002 3.53011601e-002 4.45624255e-002 4.44248952e-002
      4.11401466e-002 3.25563066e-002 1.70281231e-002 5.64205926e-003
      3.41398991e-003 2.18668324e-003 1.87005638e-003 1.69589766e-003
      1.65027787e-003 1.55169994e-003 1.96671858e-003 2.74741510e-003
      4.42103762e-003 1.83602497e-002 5.14267795e-002 7.54004344e-002
      8.78945068e-002 9.29189473e-002 8.34867358e-002 5.42534739e-002
      3.44226360e-002 2.86553595e-002 2.63285041e-002 2.58713104e-002</_>
    <_>
      2.04850677e-002 2.01169234e-002 2.08981205e-002 1.76309701e-002
      1.78030729e-002 1.87006183e-002 2.07892545e-002 2.77629998e-002
      3.89999487e-002 4.74980734e-002 5.01264632e-002 4.84069064e-002
      4.00299132e-002 2.65223049e-002 1.59231015e-002 1.00666648e-002
      8.09379853e-003 6.27379352e-003 5.60750486e-003 5.05742291e-003
      4.61052312e-003 3.68371815e-003 4.15643537e-003 5.67026064e-003
      1.03888856e-002 3.02116591e-002 5.01174703e-002 6.15348704e-002
      6.86345100e-002 7.09643736e-002 5.81829064e-002 4.27535214e-002
      3.56911868e-002 3.12201548e-002 2.90364418e-002 2.63502281e-002</_>
    <_>
      2.82457527e-002 2.77735703e-002 2.65882500e-002 2.40974743e-002
      2.25043613e-002 2.03472469e-002 1.93530936e-002 2.07348354e-002
      2.45239772e-002 3.65859717e-002 4.08322550e-002 4.04485799e-002
      3.62397842e-002 2.90936586e-002 1.38969067e-002 6.74492214e-003
      3.76497186e-003 2.59489496e-003 2.13270262e-003 1.73617573e-003
      1.46613095e-003 1.33502495e-003 1.54062954e-003 2.05748226e-003
      3.70807946e-003 1.63596291e-002 5.31613044e-002 7.67118111e-002
      8.78796205e-002 9.19990763e-002 8.45179558e-002 5.15766330e-002
      3.17755677e-002 2.41186954e-002 2.22456288e-002 2.13073511e-002</_>
    <_>
      4.64253575e-002 4.52492386e-002 4.26835194e-002 3.74483168e-002
      3.49236801e-002 3.19207907e-002 2.94553880e-002 2.82386262e-002
      2.47936323e-002 2.11092196e-002 1.68151353e-002 1.27204033e-002
      9.63915046e-003 7.14861928e-003 6.00430695e-003 5.31323254e-003
      5.22203138e-003 4.24647005e-003 3.86858033e-003 3.48725263e-003
      3.07250791e-003 3.87697318e-003 5.91963623e-003 9.32380650e-003
      1.50315147e-002 3.88360396e-002 5.83068244e-002 6.83799908e-002
      7.34914541e-002 7.29285851e-002 5.45366481e-002 3.93346772e-002
      3.46557088e-002 3.36605832e-002 3.58480141e-002 3.60840410e-002</_>
    <_>
      1.15884291e-002 1.18760858e-002 1.19309919e-002 1.06349168e-002
      1.26267858e-002 1.75768305e-002 2.97611840e-002 5.04996069e-002
      6.61592931e-002 7.12934583e-002 6.81488290e-002 5.58709018e-002
      3.43011394e-002 1.78006496e-002 9.41060856e-003 6.19195448e-003
      5.48611674e-003 4.97442810e-003 4.48692217e-003 4.73959930e-003
      4.93395561e-003 4.86463355e-003 6.77875057e-003 9.80278756e-003
      2.11807471e-002 4.55022864e-002 6.23358488e-002 7.08836615e-002
      7.33751059e-002 6.55230805e-002 4.27835174e-002 2.71835253e-002
      1.86662916e-002 1.47512611e-002 1.28932223e-002 1.31826382e-002</_>
    <_>
      3.53703089e-002 3.41153704e-002 3.19072232e-002 2.06240602e-002
      1.69391502e-002 1.58459675e-002 1.63349621e-002 1.76281352e-002
      1.98594276e-002 2.22703312e-002 2.52989922e-002 2.78339945e-002
      2.61285584e-002 2.26624198e-002 1.90721862e-002 1.33161442e-002
      7.75533402e-003 4.48956946e-003 3.08323931e-003 2.10804143e-003
      1.70071272e-003 1.62147731e-003 1.79080339e-003 2.82231183e-003
      7.50341406e-003 4.23472375e-002 6.05585352e-002 8.22427496e-002
      9.20668095e-002 9.51301828e-002 6.71240836e-002 5.20204939e-002
      3.35059613e-002 2.97331437e-002 2.52809338e-002 2.19078157e-002</_>
    <_>
      2.73464993e-002 2.77453829e-002 2.61512604e-002 2.51535345e-002
      2.64840834e-002 2.97353156e-002 3.56032290e-002 4.37528938e-002
      4.86198030e-002 4.79109585e-002 4.29003425e-002 3.32851447e-002
      2.17460245e-002 1.14449617e-002 5.34438808e-003 3.44571448e-003
      3.68126598e-003 3.31783481e-003 3.53052025e-003 4.48134262e-003
      5.98630076e-003 6.83425460e-003 9.75233875e-003 1.46135986e-002
      2.37065479e-002 4.14068475e-002 6.25887737e-002 7.19623491e-002
      7.17629194e-002 6.47792891e-002 4.92082871e-002 2.94867847e-002
      2.01236494e-002 1.89626068e-002 1.89628527e-002 1.81821845e-002</_>
    <_>
      1.76449828e-002 1.69915650e-002 1.43772354e-002 1.23004736e-002
      1.02229686e-002 1.11937942e-002 1.36987092e-002 2.16096975e-002
      3.77989113e-002 5.04933633e-002 5.26239537e-002 5.02190366e-002
      4.16519679e-002 2.41865516e-002 9.58246924e-003 4.38103499e-003
      3.05917393e-003 2.19010725e-003 1.80705474e-003 1.66570721e-003
      1.54348952e-003 1.41228619e-003 1.73756958e-003 2.71616876e-003
      5.46711171e-003 2.54386663e-002 7.20063597e-002 9.63127092e-002
      1.04050532e-001 1.04364343e-001 8.72147977e-002 4.25551385e-002
      1.98141262e-002 1.35788349e-002 1.23937083e-002 1.16954790e-002</_>
    <_>
      2.53466554e-002 2.41367817e-002 2.07650885e-002 1.66832879e-002
      1.34724947e-002 1.30320778e-002 1.61861964e-002 2.36210376e-002
      3.45789306e-002 4.14944813e-002 4.41522561e-002 4.28127572e-002
      3.73472534e-002 2.68976055e-002 1.97759178e-002 1.49436602e-002
      1.18094403e-002 8.45134165e-003 6.06155209e-003 4.49288404e-003
      4.07033460e-003 3.81793664e-003 4.00235364e-003 6.51683239e-003
      9.84916370e-003 3.00144963e-002 6.18453287e-002 7.35177025e-002
      7.80604705e-002 7.94160888e-002 6.36021644e-002 3.63075286e-002
      2.77977269e-002 2.56371386e-002 2.45213099e-002 2.49616876e-002</_>
    <_>
      2.47008502e-002 2.48691365e-002 2.42079794e-002 2.20378116e-002
      2.08767820e-002 2.16200985e-002 2.64606886e-002 3.69730890e-002
      4.77106571e-002 5.12008630e-002 4.97867651e-002 4.21798825e-002
      2.82918364e-002 1.40923299e-002 7.42972549e-003 4.39700671e-003
      3.50614777e-003 2.88871303e-003 2.41862144e-003 2.17589969e-003
      1.90507388e-003 1.75655249e-003 2.51876237e-003 4.40401118e-003
      7.81856477e-003 3.39044668e-002 6.07492812e-002 7.25846365e-002
      8.04097652e-002 8.27977434e-002 6.24407865e-002 3.83741222e-002
      2.93289199e-002 2.34842878e-002 2.11560372e-002 1.85421910e-002</_>
    <_>
      2.59430800e-002 2.45016161e-002 2.17789710e-002 1.67381112e-002
      1.38573572e-002 1.31053897e-002 1.42890597e-002 2.22264268e-002
      4.20787409e-002 5.23585454e-002 5.31286560e-002 5.11960462e-002
      4.24601436e-002 2.10622884e-002 9.43113212e-003 5.58652077e-003
      4.42168070e-003 3.48776625e-003 2.95205112e-003 2.63750413e-003
      2.61781458e-003 2.73499708e-003 3.28493770e-003 4.98704379e-003
      8.10233969e-003 2.43746564e-002 6.01354316e-002 8.13922286e-002
      8.54879841e-002 8.52672309e-002 7.19859451e-002 3.82774994e-002
      2.11211182e-002 2.12085340e-002 2.30559018e-002 2.27252916e-002</_>
    <_>
      4.35442813e-002 4.29423340e-002 3.72162014e-002 2.79796030e-002
      2.38998160e-002 2.36217286e-002 2.33201161e-002 2.36872174e-002
      2.19066497e-002 2.00292114e-002 1.85157284e-002 1.64773110e-002
      1.70397330e-002 1.67269204e-002 1.66101381e-002 1.54975206e-002
      1.53554399e-002 1.25600919e-002 1.12333847e-002 9.36743617e-003
      7.78567512e-003 7.05412263e-003 7.76226260e-003 1.37571078e-002
      2.18389388e-002 3.41735184e-002 4.20622751e-002 4.74873520e-002
      4.76378649e-002 4.63382080e-002 4.50913794e-002 4.51075435e-002
      4.72423844e-002 4.93251011e-002 5.11589833e-002 4.86464873e-002</_>
    <_>
      3.69559303e-002 3.60007547e-002 3.29844989e-002 2.16551181e-002
      1.84971187e-002 1.88720785e-002 2.30639353e-002 3.24095711e-002
      3.56459729e-002 3.83301713e-002 4.07943204e-002 3.94437425e-002
      2.98063289e-002 2.38560885e-002 1.94294006e-002 1.38595384e-002
      9.23960656e-003 6.65412424e-003 5.32423845e-003 4.18018457e-003
      3.12266918e-003 2.34887144e-003 2.61078286e-003 3.34572373e-003
      6.46538706e-003 2.49758661e-002 4.92756329e-002 6.21292070e-002
      6.84766769e-002 7.14631751e-002 5.80541939e-002 3.90519984e-002
      3.02979816e-002 3.13632414e-002 2.97695640e-002 3.02462857e-002</_>
    <_>
      5.42843714e-002 4.99488264e-002 4.24226634e-002 3.76231819e-002
      3.09242774e-002 2.54068896e-002 2.45468877e-002 2.79183630e-002
      2.89063677e-002 3.18333097e-002 3.18174399e-002 3.03583108e-002
      2.57472154e-002 2.10797563e-002 1.43600022e-002 1.05217546e-002
      7.95825012e-003 5.05299727e-003 3.34410882e-003 2.13385583e-003
      1.80411758e-003 1.60015048e-003 1.87844620e-003 2.16484466e-003
      3.46229598e-003 1.42801935e-002 3.27929892e-002 5.59037626e-002
      6.75405562e-002 7.23997131e-002 6.76050633e-002 5.39171174e-002
      3.47348265e-002 2.94947363e-002 2.75758468e-002 2.66565494e-002</_>
    <_>
      4.57292683e-002 4.25743870e-002 3.43292654e-002 2.18239743e-002
      1.36030279e-002 8.82855058e-003 8.41178000e-003 1.35629587e-002
      2.94043105e-002 4.17030975e-002 4.76151817e-002 4.82966490e-002
      4.38504256e-002 2.73762997e-002 1.41051020e-002 7.32784532e-003
      4.42435918e-003 2.53090612e-003 1.77066214e-003 1.43909047e-003
      1.23107759e-003 1.33520761e-003 1.40975916e-003 1.77589047e-003
      2.87751900e-003 1.34778228e-002 5.03181070e-002 6.90703019e-002
      7.70766214e-002 8.21617767e-002 7.64308199e-002 4.35883999e-002
      3.00032813e-002 3.09857596e-002 3.01319137e-002 2.94185542e-002</_>
    <_>
      1.00617327e-001 9.21729282e-002 6.75541535e-002 4.75375839e-002
      2.19429992e-002 1.09421350e-002 8.42280407e-003 1.29076689e-002
      1.70945916e-002 1.88107472e-002 1.77910198e-002 1.62344463e-002
      9.62792151e-003 4.07529017e-003 1.21011457e-003 7.10207038e-004
      7.65401870e-004 6.35141972e-004 6.27387897e-004 4.82688192e-004
      3.63155850e-004 4.97445464e-004 8.01059941e-004 1.38565933e-003
      3.36931506e-003 1.48409745e-002 3.96273844e-002 6.20416068e-002
      6.87295422e-002 7.17433393e-002 6.29442036e-002 4.38748114e-002
      3.25373746e-002 4.36422639e-002 5.00428155e-002 5.33965267e-002</_>
    <_>
      1.46476412e-002 1.56458374e-002 1.63403638e-002 1.68623868e-002
      2.19343603e-002 2.81172171e-002 3.48719135e-002 4.81841676e-002
      5.60626462e-002 5.42029701e-002 4.84174751e-002 4.02982906e-002
      2.59808991e-002 1.52010852e-002 1.14778709e-002 9.76847205e-003
      8.79569445e-003 8.08823109e-003 7.74462149e-003 7.00028148e-003
      6.61777286e-003 8.11711699e-003 1.03405425e-002 1.38713112e-002
      2.44558621e-002 4.87145409e-002 6.69950396e-002 7.23108947e-002
      7.22029135e-002 6.33329526e-002 4.12050635e-002 2.22110953e-002
      1.61763355e-002 1.49138253e-002 1.49409417e-002 1.39514916e-002</_>
    <_>
      6.72300383e-002 6.40800297e-002 5.41428737e-002 3.63389552e-002
      2.69611180e-002 2.19908301e-002 2.00131740e-002 2.22233068e-002
      2.21461393e-002 2.10277531e-002 1.83280911e-002 1.54816927e-002
      1.30065922e-002 1.29177310e-002 1.36402342e-002 1.35747986e-002
      1.36786122e-002 1.23718940e-002 1.01562571e-002 7.47032743e-003
      5.76913683e-003 4.61508799e-003 4.72952658e-003 7.21986173e-003
      1.36539657e-002 3.05777341e-002 3.90187502e-002 4.31234315e-002
      4.55407910e-002 4.50397059e-002 3.49028967e-002 3.31417993e-002
      3.84472087e-002 5.26832230e-002 5.72255366e-002 5.75307831e-002</_>
    <_>
      1.80466119e-002 1.74891241e-002 1.66955683e-002 1.56414174e-002
      1.51119903e-002 1.53835360e-002 1.87745243e-002 2.98920553e-002
      4.42957692e-002 4.87090088e-002 4.65770215e-002 4.07186449e-002
      2.75704768e-002 1.05642471e-002 3.46025312e-003 1.71210943e-003
      1.24786654e-003 8.39113258e-004 6.56017975e-004 6.96183066e-004
      6.07726222e-004 6.59478130e-004 8.41510948e-004 1.53630227e-003
      4.59442474e-003 4.19376083e-002 9.49430987e-002 1.06801458e-001
      1.10789835e-001 1.09681822e-001 7.46354535e-002 2.33912487e-002
      1.45284282e-002 1.29656345e-002 1.41401552e-002 1.38643114e-002</_>
    <_>
      4.55727130e-002 4.55417782e-002 4.20682393e-002 1.89831797e-002
      1.46163618e-002 1.47543503e-002 1.55504309e-002 1.65356752e-002
      1.73918698e-002 1.98909994e-002 2.05584988e-002 1.88582018e-002
      1.51435453e-002 1.17649548e-002 7.39692152e-003 3.66732851e-003
      2.27019330e-003 1.94502273e-003 2.01679673e-003 1.80802157e-003
      1.81965204e-003 1.87640288e-003 2.81100604e-003 5.60053345e-003
      1.06650265e-002 2.47597583e-002 3.79235595e-002 5.06513454e-002
      5.94987534e-002 6.53026178e-002 6.27117530e-002 5.87001294e-002
      5.99133223e-002 7.17662424e-002 7.56898448e-002 7.39751011e-002</_>
    <_>
      4.44986112e-002 4.16428111e-002 3.71748507e-002 3.43964994e-002
      2.97535248e-002 2.62623969e-002 2.79289447e-002 3.25120799e-002
      3.23824883e-002 3.09014786e-002 2.89659910e-002 2.35376228e-002
      1.58210807e-002 1.14210639e-002 9.19512566e-003 7.46326055e-003
      6.97239256e-003 5.73844556e-003 5.57260448e-003 6.81781536e-003
      1.04496628e-002 1.95927601e-002 2.50313487e-002 3.10528539e-002
      3.69221680e-002 4.62188236e-002 5.56977950e-002 5.86039200e-002
      5.70460930e-002 5.17879874e-002 4.07827646e-002 2.40589939e-002
      1.98664032e-002 2.00945400e-002 2.19048504e-002 2.19298657e-002</_>
    <_>
      2.52506714e-002 2.52678264e-002 2.39642523e-002 2.13964600e-002
      2.24974621e-002 2.62915250e-002 3.15938070e-002 3.68927903e-002
      3.91958952e-002 3.73231620e-002 3.31880189e-002 2.65658107e-002
      2.01484635e-002 1.52031006e-002 1.24480799e-002 9.64155979e-003
      7.98044354e-003 6.38860511e-003 5.44460211e-003 5.78626199e-003
      7.15755112e-003 9.69020464e-003 1.41929910e-002 1.86738614e-002
      2.93483473e-002 4.76431809e-002 5.56436852e-002 6.30758181e-002
      6.71349615e-002 6.14160858e-002 4.68031839e-002 3.96505967e-002
      3.12464442e-002 2.72834208e-002 2.50298921e-002 2.35409513e-002</_>
    <_>
      1.80466119e-002 1.74891241e-002 1.66955683e-002 1.56414174e-002
      1.51119903e-002 1.53835360e-002 1.87745243e-002 2.98920553e-002
      4.42957692e-002 4.87090088e-002 4.65770215e-002 4.07186449e-002
      2.75704768e-002 1.05642471e-002 3.46025312e-003 1.71210943e-003
      1.24786654e-003 8.39113258e-004 6.56017975e-004 6.96183066e-004
      6.07726222e-004 6.59478130e-004 8.41510948e-004 1.53630227e-003
      4.59442474e-003 4.19376083e-002 9.49430987e-002 1.06801458e-001
      1.10789835e-001 1.09681822e-001 7.46354535e-002 2.33912487e-002
      1.45284282e-002 1.29656345e-002 1.41401552e-002 1.38643114e-002</_>
    <_>
      4.23291512e-002 4.12746817e-002 3.95138450e-002 3.52536924e-002
      3.56378183e-002 4.06921804e-002 4.61005867e-002 4.90711331e-002
      4.79893647e-002 4.36473750e-002 3.40252481e-002 2.35411730e-002
      1.50747364e-002 9.87674948e-003 5.89413941e-003 3.74496402e-003
      3.57595365e-003 3.45425727e-003 3.41833662e-003 4.18899069e-003
      5.05383918e-003 7.15231430e-003 1.04078809e-002 1.51538169e-002
      2.29906254e-002 3.90233509e-002 4.80087362e-002 5.25602102e-002
      5.28773069e-002 4.86131683e-002 3.61470655e-002 2.87109837e-002
      2.48762667e-002 2.67012287e-002 2.68922783e-002 2.65263841e-002</_>
    <_>
      3.02888732e-002 2.94790920e-002 2.63542905e-002 1.81384310e-002
      1.52361700e-002 1.52977174e-002 1.78283099e-002 2.25454792e-002
      3.07566132e-002 4.07308675e-002 4.47358117e-002 4.41492051e-002
      3.92199680e-002 2.88434383e-002 1.60587616e-002 8.74847639e-003
      4.49189497e-003 2.02315743e-003 1.66090310e-003 1.55598042e-003
      1.35446480e-003 1.30559737e-003 1.56982499e-003 2.52432819e-003
      5.64269582e-003 2.50945315e-002 5.56048341e-002 7.75975361e-002
      8.99999961e-002 9.33055505e-002 7.72444829e-002 4.93084453e-002
      2.95239631e-002 2.00672671e-002 1.61277931e-002 1.55853555e-002</_>
    <_>
      3.55234295e-002 3.43870111e-002 3.07659805e-002 2.42916308e-002
      2.06194278e-002 1.83354504e-002 1.77335124e-002 2.00461596e-002
      1.97925400e-002 2.00246256e-002 2.00696196e-002 1.89750623e-002
      1.63586028e-002 1.50720803e-002 1.41792521e-002 1.27558261e-002
      1.25728855e-002 1.21665252e-002 1.16029475e-002 1.05498796e-002
      9.66357999e-003 1.06872311e-002 1.23379864e-002 1.58573128e-002
      2.37252023e-002 4.65180576e-002 6.11912869e-002 6.86059520e-002
      7.29188249e-002 7.10139945e-002 5.46529442e-002 4.22040634e-002
      3.51902172e-002 3.23250517e-002 2.94683799e-002 2.78174393e-002</_>
    <_>
      2.25801375e-002 2.34942231e-002 2.17182953e-002 1.99206416e-002
      1.94127243e-002 2.01515071e-002 2.27447264e-002 3.25082503e-002
      3.75668965e-002 3.86967622e-002 3.67636047e-002 3.06666829e-002
      1.97666567e-002 1.21679334e-002 7.75736570e-003 5.72760543e-003
      5.84802590e-003 4.75727301e-003 4.25775209e-003 4.39563207e-003
      4.57461830e-003 4.78859991e-003 6.18412811e-003 8.51824600e-003
      1.53174745e-002 4.79447730e-002 7.30177686e-002 8.47232491e-002
      8.84873718e-002 8.46974030e-002 5.73129319e-002 3.55286598e-002
      2.63917670e-002 2.38565262e-002 2.44589206e-002 2.32947692e-002</_>
    <_>
      6.81463778e-002 6.46865219e-002 5.46268821e-002 4.14381027e-002
      2.74292156e-002 1.70096252e-002 1.07196094e-002 1.07242297e-002
      1.20916683e-002 1.31565845e-002 1.48151312e-002 1.43293776e-002
      1.05624730e-002 7.41435867e-003 5.71576180e-003 4.11297800e-003
      4.17977665e-003 3.56312026e-003 3.01629701e-003 3.04893684e-003
      3.20197851e-003 3.91307985e-003 4.93242545e-003 7.61106517e-003
      1.00949621e-002 1.88609120e-002 2.42122170e-002 3.33481506e-002
      4.62132767e-002 5.51709943e-002 5.55010326e-002 6.36711270e-002
      6.89102337e-002 6.67149350e-002 7.08390400e-002 7.60175213e-002</_>
    <_>
      6.68747649e-002 6.67566806e-002 5.85925952e-002 4.62093689e-002
      3.86671536e-002 3.70199420e-002 3.53987813e-002 3.68884988e-002
      3.39920074e-002 2.83347834e-002 2.22793072e-002 1.62595231e-002
      8.27298313e-003 5.17279143e-003 3.56586254e-003 3.45091475e-003
      3.92032135e-003 4.58818907e-003 4.96804761e-003 6.00104546e-003
      7.89852720e-003 1.19141554e-002 1.56001421e-002 2.18679626e-002
      2.92185526e-002 4.04614620e-002 4.40734625e-002 4.58723083e-002
      4.42235991e-002 3.98258120e-002 3.10324207e-002 2.65143998e-002
      2.51626354e-002 2.93030664e-002 3.02636623e-002 2.95542795e-002</_>
    <_>
      2.47008502e-002 2.48691365e-002 2.42079794e-002 2.20378116e-002
      2.08767820e-002 2.16200985e-002 2.64606886e-002 3.69730890e-002
      4.77106571e-002 5.12008630e-002 4.97867651e-002 4.21798825e-002
      2.82918364e-002 1.40923299e-002 7.42972549e-003 4.39700671e-003
      3.50614777e-003 2.88871303e-003 2.41862144e-003 2.17589969e-003
      1.90507388e-003 1.75655249e-003 2.51876237e-003 4.40401118e-003
      7.81856477e-003 3.39044668e-002 6.07492812e-002 7.25846365e-002
      8.04097652e-002 8.27977434e-002 6.24407865e-002 3.83741222e-002
      2.93289199e-002 2.34842878e-002 2.11560372e-002 1.85421910e-002</_>
    <_>
      2.20532734e-002 2.13499293e-002 1.96020640e-002 1.59990638e-002
      1.53341470e-002 1.50840888e-002 1.78300440e-002 2.51598153e-002
      3.89188603e-002 5.29364087e-002 5.50474823e-002 5.19111753e-002
      4.60177436e-002 3.07453964e-002 1.39652360e-002 8.60053953e-003
      6.31136261e-003 3.13676242e-003 2.14760518e-003 2.01010844e-003
      1.87955319e-003 2.09282804e-003 2.49392493e-003 3.62911588e-003
      7.49278162e-003 2.72146966e-002 5.88356033e-002 8.02169666e-002
      8.75070095e-002 8.72484222e-002 7.06867501e-002 4.02036980e-002
      2.08555516e-002 1.64078046e-002 1.53159387e-002 1.37581937e-002</_>
    <_>
      3.04042585e-002 2.95325741e-002 2.52407584e-002 2.20959000e-002
      1.95220541e-002 2.23124456e-002 3.07966769e-002 5.19735999e-002
      5.87656088e-002 5.60174286e-002 4.95797172e-002 3.76667678e-002
      1.36558414e-002 4.00461676e-003 2.15073139e-003 1.33165892e-003
      1.19450269e-003 1.17607589e-003 7.66455487e-004 1.03505969e-003
      1.19514705e-003 1.67359447e-003 2.17179907e-003 2.94990675e-003
      4.12816135e-003 2.28389204e-002 6.21350557e-002 8.02724957e-002
      8.43923613e-002 9.01394486e-002 7.54958987e-002 3.90872024e-002
      2.29238961e-002 2.05286052e-002 1.58386528e-002 1.50060859e-002</_>
    <_>
      2.94784661e-002 2.82594133e-002 2.44061500e-002 1.86824873e-002
      1.67073049e-002 1.92635134e-002 2.44868901e-002 3.10662240e-002
      3.58603932e-002 3.65817547e-002 3.32838297e-002 2.70610712e-002
      1.94554012e-002 1.19995140e-002 8.09025485e-003 5.69595676e-003
      5.01909619e-003 4.35801595e-003 4.18446073e-003 3.96615500e-003
      3.66406376e-003 4.68140328e-003 6.60133874e-003 1.11307073e-002
      2.28797179e-002 7.21167028e-002 8.40536207e-002 8.54518563e-002
      8.36979151e-002 7.44918957e-002 3.08563076e-002 2.30229478e-002
      2.38559432e-002 2.75430437e-002 2.89919209e-002 2.90542245e-002</_>
    <_>
      2.59884205e-002 2.52269953e-002 2.15920396e-002 1.56067843e-002
      1.23627866e-002 1.27474852e-002 1.63473785e-002 2.47799773e-002
      4.00299840e-002 5.07055297e-002 5.09401560e-002 4.59881872e-002
      3.57730538e-002 1.87614132e-002 5.72824012e-003 2.10041716e-003
      1.28991157e-003 9.61253478e-004 8.38102598e-004 7.09289452e-004
      6.18017570e-004 5.64414600e-004 7.24745449e-004 1.25931937e-003
      2.97046313e-003 2.49508750e-002 6.58810288e-002 8.57603252e-002
      9.43282321e-002 9.72056463e-002 7.95350522e-002 4.28580008e-002
      2.66118590e-002 2.32702233e-002 2.24594418e-002 2.25249100e-002</_>
    <_>
      5.69309406e-002 5.40798232e-002 4.59714383e-002 3.21709663e-002
      2.33631395e-002 1.85692143e-002 1.69201028e-002 1.77390240e-002
      1.68386586e-002 1.73642561e-002 1.69759803e-002 1.54163893e-002
      1.41912699e-002 1.59563702e-002 1.52734797e-002 1.44856628e-002
      1.46467639e-002 1.28294369e-002 9.58150532e-003 7.83279818e-003
      6.87619206e-003 6.94546010e-003 9.32183675e-003 1.23283556e-002
      1.90538131e-002 2.88376678e-002 4.27573994e-002 4.73673977e-002
      4.95424606e-002 4.91855666e-002 4.64291796e-002 3.89222540e-002
      4.16701287e-002 5.18824756e-002 5.56300841e-002 5.61125875e-002</_>
    <_>
      4.10780869e-002 3.86207849e-002 3.26756462e-002 2.53609065e-002
      1.89594477e-002 1.45770274e-002 1.35522326e-002 1.65405665e-002
      1.97312813e-002 2.31458955e-002 2.57381406e-002 2.46625412e-002
      2.10561845e-002 1.62929762e-002 1.14911189e-002 7.43207568e-003
      7.00853392e-003 5.81590226e-003 5.57489973e-003 5.51940035e-003
      5.49930194e-003 5.43847028e-003 6.21743081e-003 7.61901634e-003
      1.28467456e-002 2.81379558e-002 5.13913259e-002 6.79848567e-002
      7.90410042e-002 8.05704966e-002 7.33884275e-002 5.52180335e-002
      4.36550714e-002 3.73585671e-002 3.64992842e-002 3.43003683e-002</_>
    <_>
      2.52391994e-002 2.47941148e-002 1.94253866e-002 1.36920465e-002
      9.89763252e-003 1.14244185e-002 1.71136484e-002 2.76122410e-002
      3.83482240e-002 4.44556326e-002 4.66803499e-002 4.53968532e-002
      3.74214128e-002 2.72378009e-002 2.05432400e-002 1.59738809e-002
      1.11284563e-002 8.20703991e-003 6.42352924e-003 4.98064328e-003
      4.14887490e-003 3.61695234e-003 4.10141703e-003 5.40731288e-003
      8.42272770e-003 4.04054448e-002 6.34977743e-002 7.50355870e-002
      8.08841139e-002 8.14208761e-002 5.42122647e-002 3.34982760e-002
      2.42373999e-002 2.29149479e-002 2.21816320e-002 2.00187955e-002</_>
    <_>
      3.77221629e-002 3.55786681e-002 3.09694596e-002 2.28235777e-002
      1.84422620e-002 1.50727648e-002 1.53769702e-002 1.78154334e-002
      1.91241223e-002 2.04628240e-002 2.22155806e-002 2.22079735e-002
      2.21874043e-002 2.05034297e-002 1.86628979e-002 1.68395229e-002
      1.50454966e-002 1.11350864e-002 9.58653446e-003 1.11251306e-002
      1.09063983e-002 1.02112535e-002 1.13776196e-002 1.16913887e-002
      1.21851424e-002 2.57605799e-002 4.46975939e-002 5.53888939e-002
      5.96490167e-002 6.14345521e-002 5.42016774e-002 4.46670167e-002
      4.21611629e-002 4.72524017e-002 5.15677556e-002 5.39503321e-002</_>
    <_>
      1.73152070e-002 1.69724859e-002 1.48291234e-002 1.29489377e-002
      1.03015648e-002 9.49602854e-003 1.09034711e-002 2.17318255e-002
      4.58956026e-002 5.84236532e-002 6.07899353e-002 5.82325794e-002
      4.59770896e-002 2.05678120e-002 6.61038328e-003 2.57479562e-003
      1.70106976e-003 1.13174017e-003 9.32144409e-004 8.36656254e-004
      7.41228985e-004 7.51427084e-004 1.00020459e-003 2.02656654e-003
      5.48846554e-003 2.58513466e-002 8.96044821e-002 1.04645289e-001
      1.07403994e-001 1.05551563e-001 8.68114978e-002 2.39526983e-002
      9.41763259e-003 6.91361306e-003 6.09107409e-003 5.57671441e-003</_>
    <_>
      6.58073798e-002 6.22745752e-002 5.20720705e-002 3.75927314e-002
      2.73769796e-002 2.29030177e-002 2.07044538e-002 2.06825975e-002
      2.05658097e-002 2.02441998e-002 2.05147751e-002 1.93172358e-002
      1.58529598e-002 1.35438889e-002 9.34193283e-003 4.89110826e-003
      3.90134333e-003 2.71502719e-003 2.14731717e-003 2.02642172e-003
      2.11934675e-003 1.52386364e-003 1.39290839e-003 1.63729419e-003
      3.42482491e-003 1.61729492e-002 2.71010734e-002 4.68871705e-002
      5.95350079e-002 6.81542456e-002 6.59773126e-002 6.22686818e-002
      5.13713844e-002 5.15300371e-002 4.98663746e-002 4.65618037e-002</_>
    <_>
      4.22758460e-002 4.08836566e-002 3.42045724e-002 2.36710627e-002
      1.77412424e-002 1.82461645e-002 2.40291804e-002 3.21487188e-002
      4.02688235e-002 4.17864621e-002 3.95040400e-002 3.23485658e-002
      2.26822197e-002 1.14406990e-002 6.59459364e-003 4.02584113e-003
      3.17300321e-003 2.10998161e-003 1.85167789e-003 2.06366670e-003
      2.15302291e-003 1.89509778e-003 3.45991901e-003 8.91064666e-003
      2.50536278e-002 4.63176668e-002 6.37686104e-002 7.14506209e-002
      7.25971013e-002 6.07308112e-002 4.53176796e-002 3.27154882e-002
      2.91100405e-002 3.12820673e-002 3.24041359e-002 3.17834765e-002</_>
    <_>
      2.41734162e-002 2.47700866e-002 2.27293596e-002 1.94907822e-002
      1.86561588e-002 1.89998522e-002 2.06766017e-002 2.61859242e-002
      3.27622332e-002 3.78907956e-002 4.12086546e-002 3.99512202e-002
      3.48581336e-002 2.61306129e-002 1.82732753e-002 1.20646497e-002
      8.54170043e-003 5.59936417e-003 3.99583252e-003 2.88045057e-003
      2.32409546e-003 2.03745347e-003 2.16376176e-003 3.36383050e-003
      6.13632798e-003 1.83482878e-002 5.19703068e-002 7.40333647e-002
      8.28380659e-002 8.63589570e-002 7.92832524e-002 4.92895469e-002
      3.09157111e-002 2.56759841e-002 2.33100895e-002 2.21119598e-002</_>
    <_>
      1.89213920e-002 1.90045964e-002 1.62804592e-002 1.39234457e-002
      1.13963457e-002 1.21825915e-002 1.49416029e-002 2.29613036e-002
      3.57682407e-002 4.90842648e-002 5.11200912e-002 4.70493361e-002
      3.81947421e-002 2.36331969e-002 8.49206746e-003 3.38482554e-003
      2.78184656e-003 1.88019814e-003 1.55482045e-003 1.42203295e-003
      1.27809437e-003 9.60203819e-004 1.14089332e-003 1.54075527e-003
      3.86834121e-003 2.50348765e-002 8.48399550e-002 1.01149239e-001
      1.06286347e-001 1.07340440e-001 8.90309364e-002 3.14357430e-002
      1.66636463e-002 1.30332103e-002 1.13937287e-002 1.10262744e-002</_>
    <_>
      3.33052613e-002 3.27183716e-002 3.01407594e-002 2.68151797e-002
      2.41242889e-002 2.38786153e-002 2.53690481e-002 2.82897186e-002
      3.07486448e-002 3.21853273e-002 3.26178335e-002 3.09165400e-002
      2.65841670e-002 2.19059084e-002 1.80020966e-002 1.38785560e-002
      1.10723041e-002 9.39504337e-003 7.96884205e-003 7.44703505e-003
      6.90204650e-003 7.51905236e-003 8.34661257e-003 1.00535322e-002
      1.36855906e-002 2.61875689e-002 4.12865616e-002 5.42773604e-002
      6.47202730e-002 6.49655312e-002 5.87573983e-002 4.67665531e-002
      3.74764875e-002 3.06848157e-002 3.13490480e-002 2.96580475e-002</_>
    <_>
      3.78179289e-002 3.51033211e-002 3.04618459e-002 2.42739078e-002
      2.00620089e-002 1.77025050e-002 2.06200927e-002 2.73394827e-002
      3.54679823e-002 4.25572582e-002 4.43473309e-002 3.98642793e-002
      3.18743773e-002 2.08898857e-002 1.11498954e-002 5.92105603e-003
      4.94766980e-003 3.62935802e-003 3.17286444e-003 2.83751683e-003
      2.81450828e-003 2.91082892e-003 4.30171052e-003 9.21709463e-003
      1.87554453e-002 3.57298143e-002 5.23242168e-002 6.54225871e-002
      7.07367659e-002 6.69781640e-002 5.47959059e-002 4.13321629e-002
      3.15539166e-002 2.87619028e-002 2.76608113e-002 2.66635064e-002</_>
    <_>
      2.66652387e-002 2.42014676e-002 2.20554266e-002 1.82427075e-002
      1.69785637e-002 1.62467267e-002 1.98117606e-002 3.01133618e-002
      3.98033373e-002 4.55092490e-002 4.52886261e-002 4.13387157e-002
      3.01146172e-002 1.91162210e-002 1.08341435e-002 7.37192808e-003
      6.08922215e-003 4.97017242e-003 4.05648211e-003 3.62224807e-003
      3.61934979e-003 3.72175849e-003 4.79058223e-003 5.73294563e-003
      9.18111857e-003 2.27109101e-002 4.92833667e-002 6.72664866e-002
      7.86593631e-002 8.11866522e-002 7.16416463e-002 4.98304926e-002
      3.57997790e-002 2.82382518e-002 2.73709912e-002 2.85361260e-002</_>
    <_>
      4.01471592e-002 3.91392261e-002 3.60323936e-002 2.76082065e-002
      2.51176208e-002 2.53847372e-002 2.67568417e-002 3.02065667e-002
      3.05553302e-002 2.97510754e-002 2.65864171e-002 2.28716731e-002
      1.80586390e-002 1.49693470e-002 1.31779378e-002 1.23696243e-002
      1.21252639e-002 1.08619938e-002 9.26481001e-003 8.06239527e-003
      6.62737759e-003 5.74911758e-003 8.35633744e-003 1.09727755e-002
      1.86756123e-002 4.09776457e-002 5.18527888e-002 5.53909391e-002
      5.84090166e-002 5.76055236e-002 4.30940725e-002 3.63792554e-002
      3.63090634e-002 3.80178839e-002 3.77489738e-002 3.47863957e-002</_>
    <_>
      1.67684350e-002 1.66410655e-002 1.47063127e-002 1.13432063e-002
      1.01038078e-002 1.05806682e-002 1.28887407e-002 2.15526484e-002
      3.21705081e-002 4.24031578e-002 4.61130850e-002 4.48120460e-002
      3.61601189e-002 2.49082502e-002 1.29355462e-002 7.00315693e-003
      4.73677460e-003 3.63524654e-003 3.15171410e-003 3.04867863e-003
      2.88430532e-003 2.85770348e-003 3.13811330e-003 3.85485264e-003
      6.85779518e-003 2.74960771e-002 7.26646334e-002 9.10265073e-002
      9.87132564e-002 9.98993963e-002 8.41585249e-002 4.09172624e-002
      2.51534246e-002 2.32311506e-002 2.19787024e-002 1.95052419e-002</_>
    <_>
      3.27739008e-002 3.26747559e-002 3.00245415e-002 1.93171594e-002
      1.77738015e-002 1.86388548e-002 2.09403504e-002 2.52167732e-002
      2.91676987e-002 3.30983847e-002 3.41143906e-002 3.15933004e-002
      2.89038830e-002 2.35828701e-002 1.64149292e-002 1.09064830e-002
      7.88288657e-003 3.85008589e-003 2.53748335e-003 2.32071104e-003
      2.04224559e-003 1.77238591e-003 2.53503514e-003 3.62820993e-003
      8.72230157e-003 4.44341600e-002 6.93207011e-002 8.10684264e-002
      8.78495947e-002 8.70168135e-002 5.69310375e-002 3.49577777e-002
      2.58424971e-002 2.54981574e-002 2.45333258e-002 2.21141651e-002</_>
    <_>
      5.37990294e-002 5.56823015e-002 4.98404205e-002 3.52820046e-002
      2.81273015e-002 2.68403795e-002 2.33842712e-002 2.27928478e-002
      2.20506713e-002 2.08535343e-002 1.95483547e-002 1.83032583e-002
      1.56380944e-002 1.41303763e-002 1.40361730e-002 1.27662662e-002
      1.22484686e-002 1.15728760e-002 1.04998453e-002 9.06370208e-003
      9.38025583e-003 8.97967722e-003 1.03355534e-002 1.37925921e-002
      1.76949743e-002 2.56015789e-002 3.52329202e-002 4.40298431e-002
      4.70514707e-002 4.62943353e-002 4.17483188e-002 3.90861854e-002
      3.68768498e-002 4.47349250e-002 4.96412702e-002 5.30590415e-002</_>
    <_>
      2.42444389e-002 2.32334863e-002 2.24664528e-002 2.15903725e-002
      2.34066769e-002 2.99002342e-002 4.33453694e-002 5.43925874e-002
      5.70527576e-002 5.36203608e-002 4.44204696e-002 2.82595158e-002
      1.39713706e-002 7.06888363e-003 4.37256973e-003 3.10983532e-003
      3.06201982e-003 2.83383252e-003 2.54595676e-003 2.64465995e-003
      2.72852485e-003 3.22902226e-003 5.22248494e-003 1.05300751e-002
      2.98208911e-002 7.89170191e-002 8.68495479e-002 8.82348418e-002
      8.49027783e-002 6.70494735e-002 1.91901755e-002 1.18768616e-002
      1.04062315e-002 1.15368376e-002 1.19850095e-002 1.19785136e-002</_>
    <_>
      1.90907679e-002 1.86262093e-002 1.64254569e-002 1.21525740e-002
      1.06509142e-002 1.22660985e-002 1.69726145e-002 2.75628101e-002
      4.11079451e-002 4.82064299e-002 4.92918082e-002 4.45716232e-002
      3.43226790e-002 1.97609533e-002 1.08009232e-002 6.15606317e-003
      4.91965562e-003 3.38521530e-003 2.68942933e-003 2.62124278e-003
      2.44080834e-003 2.21221871e-003 2.29112594e-003 3.24197533e-003
      1.31770130e-002 4.25285883e-002 7.14311302e-002 8.84533301e-002
      9.83051956e-002 9.33332369e-002 6.82103932e-002 4.10667285e-002
      2.57784706e-002 1.81540716e-002 1.50412880e-002 1.27529493e-002</_>
    <_>
      5.15292957e-002 4.94125523e-002 3.99553068e-002 2.94226184e-002
      1.95834618e-002 1.74427088e-002 1.93042308e-002 2.48876028e-002
      2.74408422e-002 3.01184878e-002 3.29736359e-002 3.00656799e-002
      2.30440181e-002 1.79000404e-002 1.29102357e-002 6.17465144e-003
      3.49505106e-003 2.07342207e-003 1.55220344e-003 1.50813640e-003
      1.40307192e-003 1.61220157e-003 1.96331437e-003 2.52106111e-003
      4.17819107e-003 2.46785805e-002 4.52949144e-002 6.22877739e-002
      7.78236017e-002 8.23845938e-002 6.72438517e-002 5.14637083e-002
      3.96900363e-002 3.27436998e-002 3.19740884e-002 3.19432467e-002</_>
    <_>
      1.88838057e-002 1.86802242e-002 1.65262073e-002 8.77362117e-003
      6.58890745e-003 7.22221332e-003 9.13124159e-003 1.48509489e-002
      2.46308967e-002 3.03356852e-002 3.08206715e-002 2.89340187e-002
      2.38047075e-002 1.33967949e-002 7.21211452e-003 4.83342400e-003
      4.23794799e-003 3.39698023e-003 3.28900502e-003 3.33509617e-003
      3.30878864e-003 3.62114515e-003 4.24957694e-003 6.27745921e-003
      1.46286553e-002 4.29091677e-002 6.50048256e-002 7.90975839e-002
      9.02986526e-002 9.00206417e-002 7.04819039e-002 5.66519462e-002
      5.00576533e-002 4.78752963e-002 4.81429324e-002 4.84892465e-002</_>
    <_>
      8.41068104e-002 8.05047005e-002 6.30975813e-002 4.53498475e-002
      2.61528045e-002 2.05497909e-002 2.05056202e-002 2.29761172e-002
      2.16467474e-002 2.05892920e-002 1.80581082e-002 1.36625199e-002
      8.69551580e-003 8.35802592e-003 9.13532823e-003 1.05462326e-002
      1.34146977e-002 1.54024428e-002 1.57615729e-002 1.69109609e-002
      1.60984267e-002 1.67233665e-002 1.63401961e-002 1.69304255e-002
      1.95306912e-002 3.18550803e-002 3.43582742e-002 3.59491855e-002
      3.77579108e-002 3.77401710e-002 2.93270200e-002 2.80497912e-002
      2.86996104e-002 3.85130979e-002 3.82000580e-002 3.85021567e-002</_>
    <_>
      3.33416052e-002 3.30618210e-002 2.69583426e-002 1.79963298e-002
      1.22948680e-002 1.29589001e-002 1.73758306e-002 2.34069694e-002
      3.01537346e-002 3.59268673e-002 4.01380174e-002 4.04249206e-002
      3.61374505e-002 2.83891167e-002 2.09861379e-002 1.38532147e-002
      7.40941800e-003 4.20618802e-003 3.65823507e-003 3.41253099e-003
      3.36612551e-003 3.65006248e-003 4.69760457e-003 6.43735612e-003
      1.11998767e-002 3.63108851e-002 5.91681302e-002 7.20103234e-002
      7.90500864e-002 8.14480856e-002 6.09074943e-002 4.13069837e-002
      2.98148375e-002 2.62616333e-002 2.15126760e-002 2.07673293e-002</_>
    <_>
      1.89009700e-002 1.83542725e-002 1.43354107e-002 1.19217075e-002
      7.60862743e-003 7.40232458e-003 9.12382454e-003 1.64231658e-002
      3.03742941e-002 4.63472679e-002 5.06390333e-002 4.94165607e-002
      4.18315046e-002 2.66814400e-002 9.95477196e-003 3.97376902e-003
      2.22513359e-003 1.32116501e-003 1.27683871e-003 1.28557265e-003
      1.24715769e-003 1.72193116e-003 2.44557974e-003 3.70978191e-003
      7.98428524e-003 3.05231996e-002 7.64784664e-002 1.05010420e-001
      1.09265566e-001 1.07830204e-001 8.82791355e-002 4.38651592e-002
      1.66136697e-002 1.28110228e-002 1.18254796e-002 1.09913535e-002</_>
    <_>
      2.28946097e-002 2.19139457e-002 1.85713712e-002 1.26317116e-002
      1.00884801e-002 1.08600548e-002 1.45778982e-002 2.53176894e-002
      4.13414277e-002 5.32890484e-002 5.75012304e-002 5.50566576e-002
      4.43072766e-002 2.71335058e-002 1.31926779e-002 6.03900570e-003
      3.91883682e-003 2.57152319e-003 2.18784809e-003 2.07970175e-003
      1.94468058e-003 1.92417705e-003 2.28482322e-003 2.95572705e-003
      5.35830390e-003 1.76826864e-002 4.89722043e-002 7.78063834e-002
      8.86708722e-002 9.01679918e-002 8.17430690e-002 5.30670062e-002
      2.69890409e-002 1.91543736e-002 1.83166470e-002 1.74875073e-002</_>
    <_>
      3.21490429e-002 3.18829454e-002 2.84083951e-002 1.97851248e-002
      1.71758756e-002 1.71586964e-002 1.85896326e-002 2.26770937e-002
      2.28121784e-002 2.27772929e-002 2.34738290e-002 2.24166419e-002
      2.08502095e-002 2.08025314e-002 2.10990291e-002 1.84282865e-002
      1.68179497e-002 1.28228301e-002 9.47839022e-003 6.90501556e-003
      5.68910409e-003 4.76672407e-003 6.19183434e-003 9.41800792e-003
      1.25042014e-002 3.04855313e-002 5.19525595e-002 6.58785254e-002
      7.26449564e-002 7.60996714e-002 6.50850534e-002 4.78632413e-002
      3.79114263e-002 3.70919853e-002 3.59226987e-002 3.39834392e-002</_>
    <_>
      6.72300383e-002 6.40800297e-002 5.41428737e-002 3.63389552e-002
      2.69611180e-002 2.19908301e-002 2.00131740e-002 2.22233068e-002
      2.21461393e-002 2.10277531e-002 1.83280911e-002 1.54816927e-002
      1.30065922e-002 1.29177310e-002 1.36402342e-002 1.35747986e-002
      1.36786122e-002 1.23718940e-002 1.01562571e-002 7.47032743e-003
      5.76913683e-003 4.61508799e-003 4.72952658e-003 7.21986173e-003
      1.36539657e-002 3.05777341e-002 3.90187502e-002 4.31234315e-002
      4.55407910e-002 4.50397059e-002 3.49028967e-002 3.31417993e-002
      3.84472087e-002 5.26832230e-002 5.72255366e-002 5.75307831e-002</_>
    <_>
      3.35213691e-002 3.19203287e-002 2.65562981e-002 2.13597622e-002
      1.66785102e-002 1.53330062e-002 1.66278426e-002 2.05445830e-002
      2.76276786e-002 3.59790139e-002 3.96124497e-002 3.76288481e-002
      3.22956629e-002 2.20043696e-002 1.05836038e-002 4.32133628e-003
      2.86534289e-003 1.84392498e-003 1.58603443e-003 1.55955204e-003
      1.35246152e-003 1.27665908e-003 1.63761957e-003 2.29990971e-003
      5.34881791e-003 1.91304255e-002 5.70681393e-002 7.96018690e-002
      8.85375142e-002 9.11851898e-002 8.42017755e-002 5.11557572e-002
      3.30486819e-002 2.90399473e-002 2.81062480e-002 2.65595764e-002</_>
    <_>
      1.75434556e-002 1.67955086e-002 1.63011942e-002 1.31379198e-002
      1.31498342e-002 1.40038719e-002 1.96726788e-002 3.16191241e-002
      4.68836203e-002 5.32095768e-002 5.47066033e-002 4.97957952e-002
      3.74740921e-002 2.09071301e-002 1.22973118e-002 7.17595778e-003
      4.53219097e-003 2.81287497e-003 2.24498124e-003 1.88289559e-003
      1.91209838e-003 2.05593929e-003 2.76440359e-003 4.16905107e-003
      9.17189848e-003 3.21194679e-002 6.57864437e-002 8.11939761e-002
      8.89723971e-002 8.91376883e-002 7.04863891e-002 3.91222201e-002
      2.55025569e-002 1.94848143e-002 1.68581530e-002 1.51159139e-002</_>
    <_>
      1.79229062e-002 1.74764842e-002 1.66876875e-002 1.45588741e-002
      1.59919243e-002 1.92701630e-002 2.59329453e-002 3.97145562e-002
      5.05267270e-002 5.51725067e-002 5.34461215e-002 4.60062586e-002
      3.20096500e-002 1.94059741e-002 1.16548100e-002 8.20147805e-003
      7.48269632e-003 6.19012490e-003 5.70993964e-003 4.95650666e-003
      4.80533857e-003 5.12644742e-003 7.07906811e-003 1.19874077e-002
      2.44768448e-002 4.67980802e-002 6.56504259e-002 7.28516802e-002
      7.30985776e-002 6.38028309e-002 4.44816314e-002 2.77474932e-002
      2.18226649e-002 2.06913017e-002 2.08560582e-002 2.04056948e-002</_>
    <_>
      2.52071768e-002 2.45538242e-002 2.11977176e-002 1.63335726e-002
      1.34221883e-002 1.37899853e-002 1.60985105e-002 2.80953981e-002
      4.72285300e-002 5.72571084e-002 5.66572323e-002 5.28656393e-002
      3.94908786e-002 1.85532738e-002 6.05522329e-003 3.06886993e-003
      2.11840775e-003 1.32096582e-003 9.71341506e-004 8.70522577e-004
      8.16011918e-004 7.77138164e-004 9.95758455e-004 1.26210821e-003
      2.40748515e-003 1.44655975e-002 6.47246987e-002 8.14147368e-002
      9.08107981e-002 9.43154693e-002 8.60459879e-002 3.93377803e-002
      2.55454369e-002 1.83940325e-002 1.68105643e-002 1.67200007e-002</_>
    <_>
      4.22001444e-002 3.98809277e-002 3.27271596e-002 2.04581916e-002
      1.55701470e-002 1.49120931e-002 1.69312879e-002 1.92648042e-002
      2.32622884e-002 2.89972629e-002 3.21209021e-002 3.17277536e-002
      3.17165256e-002 2.76679676e-002 1.90757662e-002 1.27839139e-002
      9.61727370e-003 5.70151117e-003 3.14728892e-003 2.07453198e-003
      1.65666407e-003 1.48992252e-003 2.45644897e-003 3.50550585e-003
      7.00872624e-003 2.01584138e-002 3.75593342e-002 6.83652461e-002
      8.22922215e-002 8.57126266e-002 7.78301507e-002 6.45982772e-002
      3.69361155e-002 2.89861560e-002 2.62435954e-002 2.53630187e-002</_>
    <_>
      4.73280735e-002 4.55177948e-002 3.71657312e-002 2.48874649e-002
      1.63995773e-002 1.38806626e-002 1.37428474e-002 1.49109084e-002
      1.53646152e-002 1.85489040e-002 2.43578833e-002 2.83989012e-002
      2.86429897e-002 2.71193068e-002 2.34108958e-002 1.60593875e-002
      1.04270903e-002 6.94089709e-003 5.51775517e-003 4.04210994e-003
      3.41859460e-003 2.93581956e-003 3.39358766e-003 4.69150068e-003
      8.88957269e-003 2.64123753e-002 4.14483584e-002 5.90930693e-002
      7.27559328e-002 7.63114244e-002 6.51465729e-002 5.59964366e-002
      4.41805087e-002 3.84275503e-002 3.70220877e-002 3.72127928e-002</_>
    <_>
      2.13913340e-002 2.16842890e-002 2.18359493e-002 2.13246047e-002
      2.26408076e-002 2.30040606e-002 2.48225816e-002 3.15376259e-002
      3.80689725e-002 4.27252129e-002 4.20468375e-002 3.75743322e-002
      2.90192813e-002 1.91741195e-002 1.04233269e-002 6.54495182e-003
      4.62890277e-003 3.10006179e-003 2.23083934e-003 1.91013445e-003
      1.76719367e-003 1.86380651e-003 2.25613965e-003 3.92820733e-003
      8.23071878e-003 3.36446688e-002 7.54121616e-002 8.89098868e-002
      9.24242586e-002 9.15560052e-002 6.97476938e-002 3.09529752e-002
      2.02877689e-002 1.81541387e-002 1.78266000e-002 1.73497107e-002</_>
    <_>
      3.24923843e-002 3.11592631e-002 2.56039035e-002 1.84279289e-002
      1.45318173e-002 1.57514531e-002 2.04315390e-002 2.68881507e-002
      3.13351639e-002 3.44707742e-002 3.40758674e-002 2.97177806e-002
      2.45523602e-002 1.95550974e-002 1.43463090e-002 1.07999127e-002
      8.97741783e-003 6.12036139e-003 3.79209523e-003 2.83820112e-003
      2.16202135e-003 2.03532050e-003 3.05443024e-003 4.32008738e-003
      1.32295527e-002 4.34424318e-002 6.79632500e-002 8.18838850e-002
      8.85500908e-002 8.38195384e-002 5.81243001e-002 3.82287502e-002
      2.83474345e-002 2.56876498e-002 2.63691135e-002 2.69142687e-002</_>
    <_>
      1.49784833e-002 1.48765594e-002 1.48775252e-002 1.47835966e-002
      1.61441192e-002 1.85438991e-002 2.40344312e-002 3.41467373e-002
      4.60170656e-002 5.15614338e-002 5.39961159e-002 5.04374132e-002
      4.02744859e-002 2.69694738e-002 1.88902859e-002 1.23023186e-002
      9.45283007e-003 8.07776209e-003 7.12404680e-003 6.97832135e-003
      7.02416804e-003 6.63219439e-003 7.23833311e-003 9.29436367e-003
      1.25631336e-002 2.78905258e-002 5.42090647e-002 6.92467615e-002
      7.41149560e-002 7.40941912e-002 6.13780990e-002 3.66427153e-002
      2.32552290e-002 1.82914007e-002 1.71950422e-002 1.64629892e-002</_>
    <_>
      1.81967877e-002 1.71559956e-002 1.51117975e-002 1.13871107e-002
      1.07128900e-002 1.26761962e-002 1.79752186e-002 2.89021432e-002
      4.07347903e-002 4.75207642e-002 4.87419367e-002 4.43443060e-002
      3.35541032e-002 2.03816835e-002 1.14965327e-002 6.27631601e-003
      4.74645849e-003 3.54166562e-003 2.96009425e-003 2.67718849e-003
      2.50216271e-003 2.14914419e-003 2.49101804e-003 3.77403386e-003
      1.42542748e-002 4.42566052e-002 6.94165081e-002 8.81500468e-002
      9.83231142e-002 9.33230370e-002 6.63692877e-002 4.33532745e-002
      2.64953244e-002 1.78005751e-002 1.44819347e-002 1.37657225e-002</_>
    <_>
      1.17293186e-001 1.10383324e-001 8.72075185e-002 5.20216078e-002
      2.85881851e-002 1.84948184e-002 1.58665329e-002 1.57830082e-002
      1.41630117e-002 1.30958194e-002 1.32601606e-002 1.30091123e-002
      1.32431649e-002 1.42181851e-002 1.50174769e-002 1.54197766e-002
      1.66223533e-002 1.60794538e-002 1.52655859e-002 1.49285821e-002
      1.45738358e-002 1.39922164e-002 1.36608416e-002 1.41559355e-002
      1.37287769e-002 1.45194307e-002 1.42276101e-002 1.40647041e-002
      1.42171709e-002 1.48069328e-002 1.68392919e-002 2.05498971e-002
      2.99566705e-002 5.03322706e-002 5.95523156e-002 6.08613044e-002</_>
    <_>
      5.56913912e-002 5.45534790e-002 4.59201671e-002 2.86856946e-002
      2.08930671e-002 1.99778862e-002 2.04956718e-002 2.21996196e-002
      2.21513268e-002 2.16710772e-002 2.09757313e-002 1.88183151e-002
      1.66161954e-002 1.41073661e-002 1.19134886e-002 9.73868091e-003
      8.99449643e-003 7.78621482e-003 7.16469344e-003 7.31964735e-003
      6.86934637e-003 8.08580965e-003 1.04502300e-002 1.60786863e-002
      2.44877897e-002 3.83043624e-002 4.87991534e-002 5.49422055e-002
      5.52671812e-002 5.04631028e-002 4.17312048e-002 3.59626487e-002
      3.53332609e-002 4.24961969e-002 4.67412844e-002 4.83132266e-002</_>
    <_>
      3.93771753e-002 3.81000936e-002 3.31558734e-002 2.40976643e-002
      1.91899762e-002 1.59002300e-002 1.45081980e-002 1.82072856e-002
      2.61227991e-002 3.14800367e-002 3.25105302e-002 3.13590877e-002
      2.69278940e-002 1.72636639e-002 9.48499236e-003 6.19691284e-003
      4.84464271e-003 3.03263357e-003 2.60483893e-003 2.69339001e-003
      2.77205114e-003 3.40771652e-003 4.76256944e-003 7.67295249e-003
      1.36573790e-002 2.59878878e-002 4.71542813e-002 6.49816766e-002
      7.09980205e-002 7.18360990e-002 6.73367232e-002 5.18031754e-002
      4.13545817e-002 4.23856787e-002 4.40490618e-002 4.27822806e-002</_>
    <_>
      4.26887013e-002 4.13141735e-002 3.70473713e-002 3.04761659e-002
      2.55591050e-002 2.36066952e-002 2.30868887e-002 2.53152680e-002
      2.66499892e-002 2.71007903e-002 2.62700282e-002 2.38878708e-002
      2.14088783e-002 1.94751136e-002 1.83783751e-002 1.56886727e-002
      1.47556681e-002 1.14856251e-002 8.60941969e-003 6.15611766e-003
      5.07150358e-003 4.37561236e-003 4.33766609e-003 6.62378222e-003
      1.41781084e-002 2.87171416e-002 4.18539867e-002 4.98656817e-002
      5.43596111e-002 5.31750396e-002 4.73989733e-002 4.22403663e-002
      4.22862023e-002 4.43101861e-002 4.61888500e-002 4.60562333e-002</_>
    <_>
      5.11318147e-002 4.84917536e-002 3.97866257e-002 2.74643917e-002
      1.97176225e-002 1.59230661e-002 1.69979092e-002 2.30603646e-002
      2.84109544e-002 3.13298628e-002 3.38985287e-002 3.28861475e-002
      2.76992358e-002 2.12375224e-002 1.62283368e-002 1.11478735e-002
      7.33480323e-003 5.00459084e-003 3.73830972e-003 3.46783060e-003
      3.37580917e-003 4.22845455e-003 5.97791607e-003 8.97089858e-003
      1.57262404e-002 3.59298140e-002 5.31087108e-002 6.13892749e-002
      6.59573451e-002 6.51308596e-002 5.02335802e-002 3.65866832e-002
      3.13372537e-002 3.34681943e-002 3.22676599e-002 3.13537270e-002</_>
    <_>
      3.50443795e-002 3.48372571e-002 3.09133921e-002 2.79170964e-002
      2.51106359e-002 2.43945308e-002 2.48465780e-002 2.93576214e-002
      3.02524939e-002 2.96674632e-002 2.77548749e-002 2.43699495e-002
      1.87102854e-002 1.47160869e-002 1.17067480e-002 9.48285963e-003
      7.93325715e-003 5.94702363e-003 5.01117716e-003 4.37973067e-003
      4.31542518e-003 4.33368515e-003 5.18714450e-003 7.05365324e-003
      1.37290834e-002 3.15354355e-002 5.43381125e-002 6.61914945e-002
      7.16955289e-002 7.16786087e-002 6.18328266e-002 4.53249477e-002
      3.80276516e-002 3.54579464e-002 3.41825448e-002 3.27623188e-002</_>
    <_>
      2.36120354e-002 2.35495437e-002 2.24406179e-002 2.01396290e-002
      1.93731189e-002 2.08795536e-002 2.29945015e-002 2.95670480e-002
      3.68868448e-002 4.23444547e-002 4.05539945e-002 3.60771716e-002
      2.71020979e-002 1.70119349e-002 8.06908403e-003 4.50307736e-003
      3.40756215e-003 2.83931103e-003 2.56834226e-003 2.48020934e-003
      2.52438989e-003 2.56209308e-003 3.08134174e-003 4.39718971e-003
      8.20905529e-003 3.47485282e-002 7.06491396e-002 8.56196657e-002
      9.24693346e-002 9.31560472e-002 7.04410151e-002 3.78551036e-002
      2.57356353e-002 2.13578921e-002 2.04898026e-002 2.03037169e-002</_>
    <_>
      8.65091160e-002 8.25170800e-002 6.48272708e-002 4.45897542e-002
      2.84105223e-002 2.53529008e-002 2.84090322e-002 3.53137702e-002
      3.78208756e-002 3.62343825e-002 3.24125625e-002 2.48993374e-002
      1.58241950e-002 9.82438959e-003 6.99229306e-003 4.80440957e-003
      4.32655308e-003 3.02225188e-003 2.45290436e-003 1.91117509e-003
      1.62999018e-003 1.75276748e-003 2.16278154e-003 3.82527872e-003
      1.18799834e-002 3.66285630e-002 4.62093465e-002 4.88083735e-002
      4.97853681e-002 4.37442400e-002 2.33022366e-002 1.81407034e-002
      2.30957624e-002 3.33572961e-002 3.92828621e-002 3.99398357e-002</_>
    <_>
      1.43906474e-001 1.35641515e-001 1.00761957e-001 7.15439692e-002
      3.61018665e-002 2.23361999e-002 1.91198289e-002 2.48981193e-002
      2.64226124e-002 2.57307757e-002 2.20757350e-002 1.62268505e-002
      7.89502077e-003 2.81993137e-003 1.38964260e-003 9.69729561e-004
      5.79812389e-004 4.71204345e-004 5.52842044e-004 5.93962788e-004
      6.78266515e-004 5.84824767e-004 7.95897970e-004 1.79938914e-003
      8.35296698e-003 2.76612528e-002 3.72037366e-002 4.57101092e-002
      4.87277918e-002 4.51800600e-002 2.73391418e-002 2.17531007e-002
      1.60246138e-002 1.85966585e-002 1.85611807e-002 2.09929943e-002</_>
    <_>
      4.06799652e-002 3.92548889e-002 3.49939913e-002 2.94444840e-002
      2.64086742e-002 2.66459845e-002 2.85543781e-002 3.26695666e-002
      3.50063331e-002 3.49502712e-002 3.29229683e-002 3.05974502e-002
      2.64152512e-002 2.28229072e-002 1.90390293e-002 1.48709370e-002
      1.11045763e-002 7.33312126e-003 4.86609293e-003 4.00218833e-003
      3.92970163e-003 3.98716936e-003 4.84114559e-003 6.72297180e-003
      1.38275251e-002 3.68470028e-002 5.28502502e-002 6.18707500e-002
      6.75573349e-002 6.53596595e-002 4.66720685e-002 3.35873626e-002
      2.73824409e-002 2.53698137e-002 2.37727743e-002 2.28389110e-002</_>
    <_>
      1.55826826e-002 1.48431724e-002 1.23471022e-002 9.19680018e-003
      7.61546846e-003 9.23157949e-003 1.26566682e-002 2.41984334e-002
      3.96184474e-002 4.80835214e-002 5.29838391e-002 5.24101406e-002
      4.16791365e-002 2.60058604e-002 1.62685793e-002 8.42153933e-003
      5.00649074e-003 3.46780964e-003 2.68270425e-003 2.36120005e-003
      1.99267291e-003 2.04771827e-003 2.33741081e-003 3.29508353e-003
      6.95294980e-003 3.50788347e-002 8.48461390e-002 9.77671444e-002
      1.03606917e-001 1.02920070e-001 7.71863535e-002 2.81086229e-002
      1.59851983e-002 1.27768731e-002 1.08441813e-002 9.59258433e-003</_>
    <_>
      2.02857573e-002 1.96254198e-002 1.71452332e-002 1.29325548e-002
      1.05807940e-002 1.01024574e-002 1.26099372e-002 2.18074881e-002
      4.03470919e-002 5.71294092e-002 6.16493635e-002 5.91560155e-002
      4.95182239e-002 2.95457691e-002 1.13466578e-002 4.97061945e-003
      3.54870572e-003 2.55457335e-003 2.07735552e-003 1.95160916e-003
      1.82119885e-003 1.77953928e-003 2.25343788e-003 2.98334449e-003
      5.27234143e-003 2.06821356e-002 5.95013015e-002 8.27315450e-002
      9.02136043e-002 9.10854712e-002 7.92873204e-002 4.24121097e-002
      2.10296530e-002 1.76978167e-002 1.68383736e-002 1.55257555e-002</_>
    <_>
      5.44307046e-002 5.24748638e-002 4.19125780e-002 3.28160860e-002
      2.43138224e-002 2.52659153e-002 2.98366360e-002 3.74260545e-002
      3.94254178e-002 3.85401286e-002 3.41221094e-002 2.77698878e-002
      1.90098044e-002 1.46393757e-002 1.21689709e-002 1.23544717e-002
      1.18990326e-002 1.06818071e-002 9.05053131e-003 7.96555076e-003
      6.21785177e-003 5.61981183e-003 7.15494156e-003 1.03821047e-002
      2.13640742e-002 4.69441116e-002 6.00114018e-002 6.41155094e-002
      6.37603253e-002 5.45772612e-002 3.03656626e-002 1.86740998e-002
      1.55631676e-002 1.91523526e-002 1.98745131e-002 2.01190971e-002</_>
    <_>
      3.19679528e-002 3.07448935e-002 2.71147937e-002 2.01382097e-002
      1.68768801e-002 1.49326175e-002 1.61696542e-002 2.24436428e-002
      3.43497619e-002 4.50362787e-002 4.94250394e-002 4.73909937e-002
      4.05547507e-002 2.70016585e-002 1.40908994e-002 6.96741370e-003
      4.68148710e-003 3.07070976e-003 2.33781594e-003 2.07029050e-003
      2.01049703e-003 1.83231896e-003 2.32077739e-003 3.24827293e-003
      5.76441083e-003 1.68591719e-002 4.10161503e-002 6.39687181e-002
      7.57453516e-002 7.97309950e-002 7.39925280e-002 5.40067628e-002
      3.58181484e-002 2.99497787e-002 2.86503732e-002 2.77198888e-002</_>
    <_>
      4.85989563e-002 4.69631962e-002 4.43546437e-002 4.04904336e-002
      3.61002460e-002 3.06698699e-002 2.60561798e-002 2.48075966e-002
      2.32746322e-002 2.21442711e-002 2.06359606e-002 1.92520898e-002
      1.65889934e-002 1.47314146e-002 1.25344237e-002 1.10188210e-002
      1.02404505e-002 8.87425803e-003 7.79323559e-003 7.90587906e-003
      7.75790354e-003 8.45206901e-003 1.09419590e-002 1.55416820e-002
      2.13526711e-002 3.54841314e-002 4.58590835e-002 5.22928722e-002
      5.40263169e-002 5.31346761e-002 4.54271957e-002 3.96942124e-002
      3.54848877e-002 3.44617441e-002 3.39752212e-002 3.30779403e-002</_>
    <_>
      6.02712519e-002 5.91740869e-002 5.33127002e-002 4.23130356e-002
      3.57780270e-002 2.98626889e-002 2.60573849e-002 2.51609311e-002
      2.61275321e-002 2.66450793e-002 2.55858731e-002 2.11271252e-002
      1.70457456e-002 1.17239403e-002 6.56692777e-003 3.50601622e-003
      2.90335016e-003 2.18594214e-003 1.86871551e-003 1.52278924e-003
      1.50963897e-003 1.68853789e-003 2.59519718e-003 4.45096707e-003
      8.00049491e-003 1.86677258e-002 3.10409255e-002 4.67335321e-002
      5.49529530e-002 5.86683825e-002 5.46410494e-002 4.95645888e-002
      4.31291349e-002 4.63240184e-002 4.91866358e-002 5.01070954e-002</_>
    <_>
      3.17636095e-002 3.13423872e-002 2.77113561e-002 2.86517944e-002
      2.46917624e-002 2.48730667e-002 2.60817967e-002 3.09308078e-002
      3.40851434e-002 3.46953757e-002 3.03787813e-002 2.43804306e-002
      1.62710007e-002 9.38444678e-003 5.18458057e-003 3.33271502e-003
      2.66843219e-003 1.77149172e-003 1.28860737e-003 9.95851820e-004
      8.82059394e-004 8.52282799e-004 1.03319658e-003 2.67623132e-003
      1.35242576e-002 5.44739440e-002 8.79302695e-002 1.01694502e-001
      1.08745232e-001 1.00837246e-001 6.17119558e-002 2.99402904e-002
      1.72511917e-002 1.03892013e-002 8.75923689e-003 8.81554559e-003</_>
    <_>
      5.01699410e-002 4.70228158e-002 3.82195488e-002 2.77224481e-002
      1.97745953e-002 1.66995749e-002 1.87133271e-002 2.44678557e-002
      2.91564725e-002 3.18430550e-002 3.29771489e-002 3.03350594e-002
      2.66686808e-002 2.15766076e-002 1.74488630e-002 1.31065268e-002
      1.06996587e-002 6.64896192e-003 4.26526694e-003 2.63975631e-003
      2.15724995e-003 1.77832379e-003 1.89262000e-003 2.51160981e-003
      4.49600443e-003 1.90316923e-002 4.29176092e-002 6.23714849e-002
      7.46535957e-002 7.99578875e-002 7.08002895e-002 4.99175489e-002
      3.57359089e-002 2.90331021e-002 2.73796674e-002 2.52092574e-002</_>
    <_>
      1.10319205e-001 1.07652113e-001 7.92191625e-002 4.49563563e-002
      1.76082999e-002 1.56342480e-002 2.08798070e-002 3.28133628e-002
      3.56798023e-002 3.44599187e-002 3.11978087e-002 2.23506838e-002
      8.81995354e-003 3.71797220e-003 1.98235875e-003 6.91922964e-004
      5.79288637e-004 2.76101840e-004 2.21332361e-004 2.02090625e-004
      2.56211293e-004 3.12404300e-004 4.67563805e-004 9.36817436e-004
      3.56857153e-003 3.91927510e-002 5.47066405e-002 5.83401248e-002
      6.04424030e-002 5.89566492e-002 2.68549938e-002 1.49194077e-002
      1.59183852e-002 2.94666383e-002 3.30977403e-002 3.33009139e-002</_>
    <_>
      3.05282287e-002 3.01454775e-002 2.75028087e-002 2.25144308e-002
      2.18898747e-002 2.21229065e-002 2.47076359e-002 3.16516869e-002
      3.82210426e-002 4.20959182e-002 4.18302119e-002 3.60488631e-002
      2.69606113e-002 1.71454772e-002 8.32264032e-003 3.93855618e-003
      3.38482065e-003 2.54320307e-003 2.37671938e-003 2.47823214e-003
      2.51273555e-003 2.64285831e-003 3.54702934e-003 5.38261514e-003
      1.04397852e-002 2.61553060e-002 5.04211113e-002 6.77527785e-002
      7.47135431e-002 7.76532143e-002 6.75711557e-002 4.76650186e-002
      3.47816050e-002 3.29500437e-002 3.01481467e-002 2.92536244e-002</_>
    <_>
      2.75379848e-002 2.69929226e-002 2.52162367e-002 2.09787358e-002
      1.88162364e-002 1.84862409e-002 1.93823129e-002 2.55888980e-002
      3.74566093e-002 4.73416150e-002 4.93018962e-002 4.65725660e-002
      3.83446813e-002 2.35881694e-002 1.12467585e-002 5.10838721e-003
      3.41649959e-003 2.34283553e-003 2.04872177e-003 1.84205303e-003
      1.75866298e-003 1.33026845e-003 1.59346405e-003 2.36043683e-003
      4.50014370e-003 2.03161314e-002 5.72065599e-002 7.98106045e-002
      8.86351094e-002 9.07414109e-002 7.85088018e-002 4.32337634e-002
      2.35563479e-002 1.96391959e-002 1.85369402e-002 1.66618302e-002</_>
    <_>
      2.67393067e-002 2.69671474e-002 2.54071951e-002 2.39863638e-002
      2.63832547e-002 3.46568562e-002 4.41456549e-002 5.28254993e-002
      5.57322912e-002 5.37468456e-002 4.52238135e-002 3.37643586e-002
      2.31992006e-002 1.62915960e-002 1.14894370e-002 8.80204327e-003
      7.96951354e-003 6.54317345e-003 5.61177311e-003 5.56549756e-003
      5.47411432e-003 6.32259855e-003 8.09079874e-003 1.23042595e-002
      2.43624859e-002 5.78137413e-002 6.77093416e-002 6.88134283e-002
      6.64987862e-002 5.53197078e-002 2.29840763e-002 1.29142320e-002
      1.22568076e-002 1.40904076e-002 1.49915023e-002 1.50029855e-002</_>
    <_>
      3.09682563e-002 2.92855036e-002 2.63227448e-002 2.26280559e-002
      2.10558232e-002 1.98101103e-002 2.20046248e-002 2.74599344e-002
      3.31265815e-002 3.86874191e-002 4.15229350e-002 3.77614312e-002
      3.06230374e-002 2.22522616e-002 1.27899600e-002 6.06081495e-003
      4.52649826e-003 3.29234824e-003 2.54770950e-003 2.39940546e-003
      2.32424773e-003 2.14864546e-003 2.39692582e-003 3.49435303e-003
      7.44761061e-003 2.84846202e-002 6.45334497e-002 8.41626823e-002
      9.04713944e-002 9.01485905e-002 7.29224384e-002 3.92295793e-002
      2.26342008e-002 1.89628471e-002 1.83565281e-002 1.71564873e-002</_>
    <_>
      6.60000741e-002 6.37927279e-002 5.43255247e-002 2.78035980e-002
      1.84030738e-002 1.44842379e-002 1.30711617e-002 1.34582361e-002
      1.29256761e-002 1.21405227e-002 1.25240209e-002 1.12155303e-002
      9.51948110e-003 8.17276631e-003 7.29237031e-003 5.85731165e-003
      6.04782905e-003 5.49270911e-003 5.25422534e-003 5.27346786e-003
      5.02957916e-003 6.05683308e-003 8.02932587e-003 1.11168064e-002
      1.75209716e-002 3.05977408e-002 4.43276800e-002 5.44871241e-002
      6.00695163e-002 5.95808737e-002 5.36515638e-002 4.61220481e-002
      4.59064730e-002 5.74867018e-002 6.32030740e-002 6.37591928e-002</_>
    <_>
      1.95730962e-002 1.93798710e-002 1.85842067e-002 1.77543461e-002
      1.78586971e-002 1.94763523e-002 2.33469456e-002 3.17611247e-002
      4.13099378e-002 5.06549664e-002 4.99309935e-002 4.38317582e-002
      3.35505195e-002 2.09930595e-002 8.35783221e-003 4.01652977e-003
      3.33309500e-003 2.57852185e-003 2.32705474e-003 2.00963416e-003
      1.79403811e-003 1.68245647e-003 2.00589979e-003 2.72835046e-003
      5.81246149e-003 3.26280147e-002 7.92728961e-002 9.43026170e-002
      9.83387530e-002 9.78257433e-002 7.34942481e-002 2.83367075e-002
      1.46936728e-002 1.28520308e-002 1.20770270e-002 1.15266489e-002</_>
    <_>
      2.56122537e-002 2.54348721e-002 2.39708778e-002 2.16428507e-002
      2.08281334e-002 2.41834912e-002 3.03728878e-002 4.14592326e-002
      4.96464558e-002 5.33145256e-002 5.01073934e-002 4.24908660e-002
      3.00832354e-002 1.88157111e-002 1.21002644e-002 8.45294632e-003
      7.32730655e-003 6.07492309e-003 5.33506647e-003 5.10170730e-003
      4.91027441e-003 4.63417592e-003 5.19050984e-003 7.33463606e-003
      1.88639481e-002 4.66780923e-002 6.23276904e-002 6.77896291e-002
      7.07731992e-002 6.30308464e-002 3.82388271e-002 2.49271989e-002
      2.19318680e-002 2.08087508e-002 2.01025307e-002 2.01026667e-002</_>
    <_>
      3.42489630e-002 3.30329947e-002 2.81957835e-002 1.67640392e-002
      1.23799844e-002 1.23558482e-002 1.51205938e-002 2.14430392e-002
      2.80204453e-002 3.49764600e-002 3.78713161e-002 3.81113179e-002
      3.40637155e-002 2.69936863e-002 1.92581657e-002 1.44533217e-002
      1.00788539e-002 6.23637484e-003 4.27190820e-003 2.92458036e-003
      1.88857620e-003 1.84969523e-003 1.84595806e-003 2.13508331e-003
      5.43343788e-003 4.26009037e-002 6.41726702e-002 7.69605264e-002
      8.87648463e-002 9.39816087e-002 5.94514459e-002 4.06765826e-002
      3.01150903e-002 2.37299986e-002 1.75435431e-002 1.80486999e-002</_>
    <_>
      5.54477423e-002 5.26854582e-002 4.49194536e-002 2.90007796e-002
      2.13526916e-002 1.71638355e-002 1.63379591e-002 1.88853107e-002
      2.13840473e-002 2.30324715e-002 2.29060110e-002 2.03832462e-002
      1.66694801e-002 1.25091076e-002 8.63682386e-003 5.82023943e-003
      5.20575047e-003 4.22468176e-003 3.72164021e-003 4.00216412e-003
      4.16824082e-003 4.48764907e-003 5.43748774e-003 7.36902002e-003
      1.07373046e-002 2.30944995e-002 4.09651026e-002 5.69598302e-002
      6.43060952e-002 6.72932938e-002 6.21221140e-002 5.03043197e-002
      4.37411703e-002 4.92968038e-002 5.30006811e-002 5.24272993e-002</_>
    <_>
      2.83109657e-002 2.79972982e-002 2.47464236e-002 2.07239091e-002
      1.91521645e-002 2.02488992e-002 2.22606957e-002 2.52920259e-002
      2.68194694e-002 2.63479538e-002 2.42076255e-002 1.99503470e-002
      1.70893464e-002 1.30096124e-002 1.06438100e-002 9.30990465e-003
      9.81516112e-003 8.84523802e-003 9.02935490e-003 9.10165533e-003
      1.00631658e-002 1.19894193e-002 1.55600440e-002 2.29067411e-002
      3.93272266e-002 6.10985234e-002 7.25760907e-002 7.85773471e-002
      7.62294978e-002 6.26229122e-002 4.27866876e-002 3.14690433e-002
      2.53265910e-002 2.50826869e-002 2.59845015e-002 2.54977141e-002</_>
    <_>
      4.44346629e-002 4.32897806e-002 3.98806073e-002 3.31606641e-002
      2.91534476e-002 2.50689816e-002 2.19389331e-002 2.13613305e-002
      1.90837122e-002 1.68983806e-002 1.51712503e-002 1.34470398e-002
      1.09763667e-002 1.05874185e-002 1.07472399e-002 1.04995975e-002
      1.07292943e-002 9.91933886e-003 9.10069421e-003 8.36604182e-003
      8.63272324e-003 8.90167896e-003 1.24120340e-002 1.52382590e-002
      2.22235546e-002 3.30931060e-002 4.69304509e-002 5.46311140e-002
      6.14020489e-002 6.19472526e-002 5.77736571e-002 4.91083413e-002
      4.35711890e-002 4.20883484e-002 3.97316888e-002 3.84998322e-002</_>
    <_>
      3.98406237e-002 3.96404713e-002 3.61162610e-002 3.00970040e-002
      2.62836050e-002 2.39549037e-002 2.28001419e-002 2.38723494e-002
      2.36472841e-002 2.24575382e-002 2.16961391e-002 1.91306621e-002
      1.64422765e-002 1.36307236e-002 1.27338050e-002 1.13411555e-002
      1.16971564e-002 1.05771832e-002 1.06737511e-002 1.04007246e-002
      1.05026970e-002 1.09218769e-002 1.17595363e-002 1.32878078e-002
      2.04143859e-002 3.89819033e-002 5.04358076e-002 5.62359914e-002
      5.98357543e-002 5.63685521e-002 4.37482931e-002 3.76733802e-002
      3.75535190e-002 3.96789573e-002 4.24503013e-002 4.31176014e-002</_>
    <_>
      2.93323789e-002 2.83395071e-002 2.65773647e-002 2.39719320e-002
      2.20500268e-002 2.06381381e-002 2.17330791e-002 3.10828239e-002
      3.79581787e-002 4.04618792e-002 4.07361984e-002 3.59381698e-002
      2.35154796e-002 1.36061665e-002 7.60675455e-003 3.20040877e-003
      2.82161636e-003 1.95768639e-003 1.41266722e-003 1.36423390e-003
      1.43185502e-003 1.18250982e-003 1.62952382e-003 2.80843186e-003
      5.43053122e-003 2.67109256e-002 6.53769076e-002 8.19918737e-002
      9.06504542e-002 9.33834538e-002 7.64559880e-002 4.10064086e-002
      2.83609629e-002 2.42009386e-002 2.30294168e-002 2.20450833e-002</_>
    <_>
      3.25790122e-002 3.17688771e-002 2.81089712e-002 2.43360884e-002
      2.37733517e-002 2.56249066e-002 2.85388231e-002 3.39613482e-002
      3.62925418e-002 3.54783908e-002 3.21842395e-002 2.69876588e-002
      2.07595173e-002 1.52219916e-002 1.15715452e-002 8.71121697e-003
      8.02714564e-003 6.82509178e-003 5.79703785e-003 5.15039079e-003
      4.99866344e-003 6.07253658e-003 8.33867211e-003 1.36258435e-002
      2.75318902e-002 4.88550030e-002 6.25543296e-002 6.91519007e-002
      6.94066957e-002 6.00613542e-002 4.26885933e-002 3.10942773e-002
      2.77307946e-002 2.81310268e-002 2.90769543e-002 2.89832596e-002</_>
    <_>
      3.06030549e-002 3.08676045e-002 2.66102441e-002 1.95731726e-002
      1.66324042e-002 1.83486883e-002 2.18954813e-002 2.89946403e-002
      3.66533399e-002 4.49328125e-002 4.71961163e-002 4.20254469e-002
      3.40824537e-002 2.31040008e-002 1.15793347e-002 4.62353602e-003
      3.13522900e-003 1.91810855e-003 1.66756066e-003 1.48257159e-003
      1.19842310e-003 1.19151035e-003 1.51498010e-003 2.59287911e-003
      5.89622092e-003 2.19592731e-002 4.93890755e-002 6.94421083e-002
      8.28522965e-002 8.59959722e-002 7.47228712e-002 5.04488945e-002
      3.37527245e-002 2.65911631e-002 2.38771122e-002 2.26487871e-002</_>
    <_>
      2.92743389e-002 2.77858805e-002 2.27084868e-002 1.89998150e-002
      1.58928558e-002 2.02404577e-002 3.24542299e-002 5.02254069e-002
      5.91290779e-002 6.31171614e-002 5.84131256e-002 4.52095792e-002
      2.74296887e-002 1.62222274e-002 8.99594743e-003 6.32886356e-003
      6.45696698e-003 5.05077187e-003 4.57384950e-003 4.55687754e-003
      4.61870804e-003 4.81049065e-003 6.43800804e-003 1.05203167e-002
      2.60451529e-002 5.48337586e-002 6.68885559e-002 6.92420080e-002
      6.80593178e-002 5.37809730e-002 2.64800284e-002 1.56952292e-002
      1.48848137e-002 1.68212019e-002 1.86150875e-002 1.92007739e-002</_>
    <_>
      3.84046361e-002 3.70513350e-002 3.35781164e-002 2.94654258e-002
      2.71916911e-002 2.64454465e-002 2.82795783e-002 3.33444737e-002
      3.49198431e-002 3.40732597e-002 3.23902145e-002 2.89650746e-002
      2.47209072e-002 2.02597231e-002 1.76078975e-002 1.50209246e-002
      1.31799532e-002 9.00337007e-003 7.25902012e-003 6.77180663e-003
      5.95204206e-003 5.45947906e-003 5.58793778e-003 7.09644193e-003
      1.18432129e-002 3.65515463e-002 5.33673167e-002 6.22473247e-002
      6.81132451e-002 6.70594797e-002 4.65041138e-002 3.30571979e-002
      2.69325040e-002 2.50930935e-002 2.37141475e-002 2.34882198e-002</_>
    <_>
      2.97908615e-002 2.76125520e-002 2.51767822e-002 2.17985157e-002
      1.95634291e-002 1.85053907e-002 2.04431675e-002 2.99368147e-002
      3.66376489e-002 3.76942419e-002 3.57276760e-002 3.20440568e-002
      2.04113852e-002 1.10708112e-002 7.11111492e-003 5.23332693e-003
      4.62027639e-003 3.91915254e-003 3.47880740e-003 3.50053236e-003
      3.60153010e-003 3.85756837e-003 5.56596322e-003 7.92344939e-003
      1.43560311e-002 4.34231907e-002 6.75822124e-002 8.00557062e-002
      8.75072330e-002 8.61802548e-002 6.17898069e-002 4.03732546e-002
      3.03315502e-002 2.56131068e-002 2.44882405e-002 2.30742302e-002</_>
    <_>
      1.22063905e-002 1.16137490e-002 1.09076938e-002 9.94902663e-003
      1.03250481e-002 1.05734915e-002 1.35116316e-002 2.21187118e-002
      3.95657346e-002 4.89232838e-002 5.07255793e-002 4.73729223e-002
      3.82565968e-002 1.93900540e-002 7.79450592e-003 3.46675189e-003
      2.39439099e-003 1.83970702e-003 1.45991798e-003 1.62590563e-003
      1.67175033e-003 1.71996024e-003 2.19302671e-003 3.32597783e-003
      7.62664247e-003 3.00143640e-002 8.69205147e-002 1.05825908e-001
      1.10771902e-001 1.10060520e-001 9.11698118e-002 3.58500928e-002
      1.74741130e-002 1.27954939e-002 1.01346979e-002 8.42398964e-003</_>
    <_>
      6.03542589e-002 5.70912473e-002 4.89850454e-002 3.46741155e-002
      2.51592938e-002 2.03931145e-002 2.09424943e-002 2.31167916e-002
      2.42772531e-002 2.65222434e-002 2.64784992e-002 2.29288861e-002
      1.81730185e-002 1.47740887e-002 1.20658446e-002 1.20010925e-002
      1.22448532e-002 1.16721885e-002 1.20457830e-002 1.19075952e-002
      1.14640659e-002 1.15828495e-002 1.24220466e-002 1.28248772e-002
      1.57528874e-002 2.78645605e-002 3.99561711e-002 4.88122292e-002
      5.40776514e-002 5.35406582e-002 4.41383757e-002 3.49127464e-002
      3.03194840e-002 3.46053317e-002 3.61721292e-002 3.57462317e-002</_>
    <_>
      1.87577289e-002 1.76559389e-002 1.55014582e-002 1.16065759e-002
      1.03302235e-002 9.56209749e-003 1.16926581e-002 2.21201740e-002
      3.74116972e-002 5.62551357e-002 6.06024154e-002 5.85770011e-002
      4.87996750e-002 3.23921926e-002 1.21737458e-002 6.05589151e-003
      5.06006880e-003 3.47196148e-003 2.93954019e-003 2.58690212e-003
      2.45360658e-003 2.14870134e-003 2.43368419e-003 2.95556313e-003
      5.40949637e-003 1.91000812e-002 6.25034571e-002 8.59557167e-002
      9.09721553e-002 9.11143497e-002 7.97484145e-002 3.80660035e-002
      1.83396842e-002 1.76074617e-002 1.89338736e-002 1.87048037e-002</_>
    <_>
      2.37601567e-002 2.36285105e-002 2.17357110e-002 1.89950913e-002
      1.77629646e-002 1.92339774e-002 2.29322314e-002 3.14254947e-002
      4.15372998e-002 4.70584892e-002 4.55401614e-002 3.96094285e-002
      2.95976009e-002 1.60969999e-002 7.40507338e-003 4.19362634e-003
      3.55558586e-003 2.36198422e-003 2.12418498e-003 2.07070261e-003
      2.19615176e-003 2.79322546e-003 4.15890617e-003 6.19829213e-003
      1.19009418e-002 3.07913274e-002 5.94384484e-002 7.40910396e-002
      8.20479095e-002 8.22437033e-002 6.79189712e-002 4.38592061e-002
      3.26640755e-002 2.69234851e-002 2.56995596e-002 2.64494866e-002</_>
    <_>
      7.62390420e-002 7.33391568e-002 5.79969995e-002 4.46417294e-002
      3.20437029e-002 2.84780599e-002 3.24834287e-002 4.85052392e-002
      5.21276519e-002 5.03596999e-002 4.54954915e-002 3.48057821e-002
      1.72104705e-002 9.45791602e-003 5.82033349e-003 4.02953289e-003
      3.82928690e-003 2.42543453e-003 2.06730352e-003 1.80000591e-003
      1.59468211e-003 1.15089759e-003 1.44723523e-003 3.29935853e-003
      1.91232786e-002 5.14834858e-002 5.64303733e-002 5.74586131e-002
      5.67625463e-002 4.27742787e-002 1.20813614e-002 8.65998957e-003
      1.11812958e-002 1.64724514e-002 1.84340253e-002 1.84899829e-002</_>
    <_>
      6.84254095e-002 6.69304729e-002 5.71502373e-002 2.59356443e-002
      1.74643509e-002 1.82141606e-002 2.78965291e-002 3.73701416e-002
      3.82913500e-002 3.66720483e-002 3.25908475e-002 2.07339097e-002
      1.00839464e-002 6.74775383e-003 5.33886719e-003 4.34674881e-003
      4.19185124e-003 3.19636753e-003 2.66693393e-003 2.24604458e-003
      2.08016904e-003 2.21410836e-003 2.70075188e-003 4.28782776e-003
      1.87922809e-002 5.90885729e-002 6.84289038e-002 7.22139850e-002
      7.36322477e-002 6.15356266e-002 2.46381294e-002 1.93814598e-002
      1.93498563e-002 2.66925246e-002 2.84931138e-002 2.99769007e-002</_>
    <_>
      2.76542995e-002 2.67921984e-002 2.39433534e-002 1.95759200e-002
      1.85829494e-002 1.78173464e-002 1.84496716e-002 2.27876492e-002
      2.72269435e-002 3.64540890e-002 4.26800437e-002 4.16919403e-002
      3.76640484e-002 3.19757350e-002 2.04679724e-002 1.12684602e-002
      9.06566065e-003 6.93751918e-003 5.41794766e-003 4.40634880e-003
      4.06459440e-003 4.08717804e-003 4.80197277e-003 5.65812550e-003
      8.87367874e-003 2.43347585e-002 4.73753028e-002 6.53732345e-002
      7.40478262e-002 7.68250898e-002 6.63730651e-002 4.71668951e-002
      3.37045453e-002 2.97312774e-002 2.86071301e-002 2.81152558e-002</_>
    <_>
      1.05006553e-001 1.01086959e-001 8.06926489e-002 5.12477867e-002
      2.88312025e-002 1.99787728e-002 1.55275315e-002 1.48442648e-002
      1.33838914e-002 1.19895190e-002 9.66964290e-003 6.68954570e-003
      3.20485374e-003 1.91851612e-003 1.02577859e-003 6.79985271e-004
      6.45310909e-004 4.66419850e-004 4.56097914e-004 4.04216727e-004
      3.88470071e-004 4.17716423e-004 6.66018925e-004 1.20859663e-003
      3.94825451e-003 1.91366784e-002 3.51262428e-002 4.71516475e-002
      5.61922602e-002 6.08881675e-002 5.44797666e-002 4.81552556e-002
      4.55202013e-002 5.11578582e-002 5.33753522e-002 5.44378683e-002</_>
    <_>
      2.18672361e-002 2.07375847e-002 1.78114735e-002 1.34940334e-002
      1.15844943e-002 1.15576824e-002 1.64588541e-002 2.83317566e-002
      3.72200534e-002 4.17282842e-002 4.67967689e-002 4.44445387e-002
      3.28964964e-002 2.30792593e-002 1.75695438e-002 1.02807544e-002
      6.46031322e-003 4.73864237e-003 3.79761658e-003 2.48475187e-003
      1.84033811e-003 1.64626341e-003 1.90551428e-003 2.22525001e-003
      4.07660007e-003 3.81230377e-002 6.42768890e-002 8.23790655e-002
      9.09453779e-002 9.39121246e-002 6.54405951e-002 4.28100824e-002
      2.82860305e-002 2.42358018e-002 2.31560357e-002 2.14007702e-002</_>
    <_>
      2.70604808e-002 2.63583660e-002 2.22310312e-002 1.29044428e-002
      8.73853918e-003 9.20328684e-003 1.38557022e-002 2.37947013e-002
      4.10315655e-002 5.10927662e-002 5.29568493e-002 4.85135317e-002
      3.86380889e-002 2.04412565e-002 9.62402020e-003 5.07607870e-003
      3.45583283e-003 2.27153045e-003 1.75119867e-003 1.47251622e-003
      1.27095776e-003 1.18166255e-003 1.37128925e-003 2.66828504e-003
      7.13684782e-003 3.41075808e-002 7.49390498e-002 8.89407620e-002
      9.38981920e-002 9.35342237e-002 7.07850605e-002 3.34189087e-002
      2.17947457e-002 1.93961766e-002 1.78113040e-002 1.72731541e-002</_>
    <_>
      4.01711129e-002 3.81296501e-002 3.26808207e-002 2.36566886e-002
      1.78375896e-002 1.46652926e-002 1.49808219e-002 2.08621267e-002
      3.14277001e-002 4.09525223e-002 4.43568304e-002 4.21274751e-002
      3.44249606e-002 2.22555771e-002 1.05079506e-002 4.96351486e-003
      4.00722446e-003 2.87699769e-003 2.49565556e-003 2.15203874e-003
      2.03564577e-003 1.95844751e-003 2.31422950e-003 3.17678647e-003
      5.34317782e-003 1.40633862e-002 3.85878421e-002 6.56506494e-002
      7.71208629e-002 8.08468312e-002 7.74052367e-002 5.70126139e-002
      3.51796784e-002 3.17072272e-002 3.13857719e-002 3.06790248e-002</_>
    <_>
      2.30730288e-002 2.27186494e-002 1.92887150e-002 1.24785043e-002
      1.04335174e-002 1.18636470e-002 1.64943598e-002 2.99912840e-002
      4.35825661e-002 5.06700240e-002 5.50444312e-002 5.27480431e-002
      3.94030698e-002 2.39059795e-002 1.42256347e-002 6.52370509e-003
      2.89052026e-003 1.40393421e-003 1.11760118e-003 1.04144460e-003
      9.38243291e-004 7.43419398e-004 9.91970650e-004 1.42242608e-003
      3.12837353e-003 3.65270190e-002 7.38169998e-002 9.42142755e-002
      1.00573368e-001 1.01872019e-001 7.05447719e-002 3.43558155e-002
      1.51596200e-002 1.02806287e-002 8.67510680e-003 7.85726774e-003</_>
    <_>
      2.00614464e-002 2.05688737e-002 2.04753783e-002 1.86229516e-002
      2.03829166e-002 2.50550900e-002 3.06868907e-002 4.37679477e-002
      5.09038791e-002 5.09568527e-002 4.61397432e-002 3.98660935e-002
      2.53197812e-002 1.51688671e-002 1.04203150e-002 7.50690652e-003
      4.83294530e-003 3.06099746e-003 2.25637946e-003 2.01594108e-003
      1.87707448e-003 2.00240477e-003 2.78422190e-003 6.07045786e-003
      1.20580662e-002 4.53843176e-002 6.57179877e-002 7.86256343e-002
      8.30875412e-002 8.21838975e-002 5.21123447e-002 3.35314646e-002
      2.26439591e-002 1.99038386e-002 1.74672026e-002 1.64794438e-002</_>
    <_>
      2.72747166e-002 2.71946900e-002 2.59445105e-002 2.40030717e-002
      2.51641069e-002 2.90286597e-002 4.06333841e-002 5.70816398e-002
      6.01830669e-002 5.69140166e-002 4.92383875e-002 3.32382172e-002
      1.36687374e-002 5.86726516e-003 3.02895787e-003 2.06842413e-003
      1.87328260e-003 1.27721461e-003 1.17934262e-003 1.09834992e-003
      9.97906434e-004 1.52119645e-003 3.66952084e-003 7.83544686e-003
      1.87246036e-002 5.52070402e-002 7.84400180e-002 8.30776915e-002
